487 300
</s> 0.096575 -0.19866 0.37555 -0.1207 -0.24653 0.08322 -0.080745 0.19374 0.22792 0.26798 0.156 0.14088 -0.23596 0.18753 0.27575 0.33699 -0.17068 0.17249 0.088673 -0.046824 -0.027209 0.037532 -0.026176 -0.096724 -0.15271 -0.068906 -0.18389 0.0025638 0.26885 0.22033 -0.33889 0.050369 0.08159 -0.038603 0.044443 0.19466 -0.32812 0.088101 0.053037 -0.10823 0.052768 -0.32139 -0.028093 0.12343 0.077067 -0.11628 -0.0084146 -0.31603 -0.025164 -0.16642 -0.019756 0.194 -0.18557 -0.050471 0.04107 -0.1667 -0.12714 0.064675 -0.22624 0.24745 0.3123 0.31728 0.13149 -0.38772 0.010996 -0.23242 -0.16212 0.034222 -0.30472 -0.051674 -0.050763 -0.08024 -0.097169 0.031771 -0.10185 -0.087353 0.19356 -0.11085 0.0031818 0.23596 -0.27324 -0.25317 -0.077898 -0.069178 0.41568 -0.047628 0.10876 -0.11058 -0.0020806 -0.29472 -0.30457 -0.32217 0.34352 0.17379 0.088891 0.26572 -0.26775 0.33313 0.25606 0.06099 -0.36466 -0.16758 -0.19403 -0.048134 0.16182 -0.094939 -0.12066 0.0097141 -0.10555 0.022631 0.11117 -0.10764 -0.143 0.028639 0.21401 0.039282 -0.42735 0.1995 -0.34565 0.29335 0.051477 -0.068427 -0.14033 0.3556 0.16935 -0.15822 0.074634 0.035424 0.39961 -0.25244 0.155 -0.31127 -0.10926 0.07613 -0.049107 0.034639 -0.01994 -0.30417 -0.060138 0.31696 -0.10922 -0.1818 0.16866 0.38228 0.096238 0.20255 0.20045 -0.10682 0.10839 -0.28007 -0.60394 -0.21434 -0.22078 0.060702 -0.16796 0.00076771 -0.21777 0.15686 -0.2091 -0.24208 -0.063356 -0.38938 0.086853 0.0014844 0.2286 -0.43247 0.080704 0.33777 -0.012733 0.34566 -0.0777 0.099242 0.14662 0.12486 0.022249 0.23166 -0.076246 0.10333 0.36292 0.027187 0.22016 0.062334 0.078474 0.23421 0.18239 0.083584 0.13487 -0.0028163 0.2327 0.26508 0.19393 -0.21903 -0.17549 0.092983 -0.13016 -0.033392 -0.17008 0.066228 -0.2642 0.31252 0.19371 -0.098996 0.23857 -0.2631 -0.28021 -0.44034 0.054802 -0.0045848 -0.22003 -0.16936 0.11607 0.32941 0.069983 -0.041671 -0.016073 0.34709 -0.11931 0.036433 0.070485 -0.45567 -0.29505 0.037294 -0.048206 0.1394 0.098124 -0.048603 -0.30026 0.1466 0.011635 0.061664 -0.18704 0.60053 0.086369 0.036075 -0.032231 0.36193 -0.13358 0.02309 -0.16367 -0.34674 -0.16801 -0.18723 -0.30638 0.004493 0.2569 -0.18706 0.17645 0.0058051 0.093687 -0.07036 -0.078813 0.10916 0.1806 -0.013117 0.2511 0.30203 -0.027949 -0.043752 0.064814 0.18011 0.031942 -0.14648 0.50162 0.40794 -0.15768 -0.022312 -0.26759 -0.50544 -0.044812 0.55971 -0.040394 0.13873 -0.087214 0.089568 -0.061576 0.34089 0.11102 0.10646 0.21133 -0.10719 -0.35161 -0.26016 0.01189 -0.071079 -0.34722 -0.15296 -0.039239 0.098533 -0.18141 -0.70599 -0.096574 0.07383 0.059022 0.04597 -0.39344 -0.11451 -0.14194 -0.31298 -0.077566 -0.24547
. -0.030833 0.023844 0.16858 -0.21286 -0.064675 0.22268 -0.054631 -0.032932 -0.23283 -0.10242 0.017542 0.17024 -0.13595 -0.098467 0.021955 0.33607 0.10978 -0.24246 0.063486 -0.06122 -0.019675 0.14082 0.15242 -0.0689 -0.17672 0.083971 0.052498 -0.099478 0.11969 0.017754 -0.095424 0.22783 -0.01339 0.010242 -0.32218 0.055014 0.046087 0.14633 -0.07669 0.095486 -0.13874 -0.071129 -0.043391 0.0083826 0.045341 -0.19072 0.031378 0.0289 0.059974 -0.069167 0.0029178 -0.11251 -0.0022202 -0.080642 0.15205 -0.063585 -0.082884 -0.1807 0.4478 0.12382 -0.077793 0.10479 -0.14188 -0.34103 -0.089174 0.11537 0.23328 0.032297 0.05604 -0.011296 0.050242 -0.1057 -0.053112 -0.098792 -0.0089247 0.20126 0.17268 -0.19949 -0.053642 0.2569 -0.12254 -0.074602 0.17276 0.0092666 -0.019182 -0.011132 0.18205 0.14132 0.029746 0.077966 -0.24714 -0.10536 -0.1228 0.15 0.047716 -0.017991 -0.037341 0.015649 -0.052408 -0.093927 0.006064 -0.19682 0.017458 -0.026112 0.22978 0.023661 -0.15756 -0.050813 0.0079577 -0.1638 -0.076214 -0.028217 -0.14684 -0.0053125 0.031704 -0.045431 -0.12732 0.052481 -0.020511 0.034304 0.078267 0.094031 0.055439 -0.011645 0.075393 0.053557 0.049237 0.14904 0.047443 -0.035755 0.14894 -0.11903 -0.14216 -0.078177 0.030963 0.078125 -0.024923 0.018032 -0.17594 0.041942 -0.079107 0.05898 -0.16481 0.029456 0.19415 0.15873 -0.036652 0.0087639 0.11431 -0.0486 -0.21482 -0.23204 0.023852 0.28456 0.079994 -0.05362 -0.037523 0.14085 -0.082233 -0.056683 0.13277 -0.10806 0.12423 0.0040145 0.32094 -0.052941 -0.17573 -0.061375 -0.095217 -0.01933 -0.16082 0.10763 -0.062747 0.0054059 0.099432 -0.26086 0.030503 0.070535 -0.15819 0.034045 0.019453 -0.20537 0.12571 0.24537 0.06225 0.11063 0.12547 0.20128 -0.13373 0.10073 -0.027589 0.030911 0.13482 0.038335 -0.11383 0.042973 0.10967 -0.2589 -0.094363 -0.054103 0.10142 -0.021634 0.25222 -0.059167 -0.096641 0.024163 -0.078766 0.029119 -0.032436 0.015439 -0.1623 0.042277 -0.068273 -0.15315 -0.19182 0.38852 0.12 0.028576 -0.036365 -0.19679 -0.041354 -0.07683 -0.17121 -0.13902 0.16015 0.38135 -0.0074081 0.016998 0.094031 0.016958 0.022746 0.24799 0.14377 -0.094681 -0.018763 0.25615 0.10921 -0.073728 0.053192 0.01942 -0.014465 -0.1535 -0.07443 0.11579 0.20439 -0.037973 0.20003 -0.14636 0.017139 0.054965 -0.16879 0.060635 0.021882 0.026549 0.088973 0.075374 -0.01744 -0.029761 -0.17774 0.12673 0.08067 0.040088 0.17693 0.020774 0.025388 -0.062855 -0.19436 0.22022 0.13035 0.08778 -0.087682 -0.011 0.12752 -0.027651 -0.055651 0.22463 -0.098125 0.012094 0.026895 0.16558 0.03013 -0.10035 -0.10884 -0.06969 -0.1398 -0.097724 0.011494 0.10179 0.018608 -0.091034 -0.034614 0.0067241 -0.15941 -0.19069 -0.26692 -0.28101 0.056415 0.0061979 -0.064362 -0.13515
, -0.017657 0.00079051 0.1238 -0.31571 0.024074 0.063832 0.0045778 -0.017093 -0.20922 -0.062074 0.039583 0.14668 -0.014344 -0.15053 -0.14471 0.53587 0.09486 -0.17213 -0.09334 -0.067481 0.010314 0.14329 0.0074959 -0.078367 -0.21671 0.082001 0.13931 0.011663 0.10468 0.0014769 -0.020885 -0.062617 -0.027291 0.054688 -0.10371 -0.053193 0.009286 0.078281 -0.13633 0.047312 -0.12749 5.592e-05 0.10768 -0.12382 0.22988 -0.12768 0.027692 0.054808 0.075818 0.032275 0.019452 -0.19879 0.0054209 0.014733 0.074607 -0.022527 -0.23001 -0.052377 0.44565 0.13637 0.042891 -0.058856 -0.19103 0.024256 -0.0033858 0.051768 0.29224 0.2034 -0.079847 0.0031094 0.060691 -0.09478 0.085736 -0.071714 0.03386 0.069105 0.24756 -0.10059 -0.026497 0.23471 -0.076699 -0.032999 0.13053 -0.13399 -0.092394 -0.075334 0.13132 0.15984 0.17224 0.057482 -0.16633 0.082937 -0.12165 0.22557 0.10051 0.16695 -0.071252 -0.0076776 0.016715 -0.2828 0.016064 -0.01273 0.087635 -0.035718 0.0056239 0.050411 -0.17848 -0.13049 -0.01332 -0.046356 0.00024839 -0.21108 -0.17035 0.042318 0.035593 -0.032177 -0.16159 0.11856 0.09088 -0.066306 -0.13991 -0.0081346 0.0083254 -0.078006 0.013325 0.13199 0.16468 0.0097741 -0.082877 -0.092222 0.19134 -0.046053 0.046206 -0.037329 -0.040848 0.00063301 0.16756 -0.10446 -0.13334 0.11116 -0.17084 0.11918 0.010736 0.12294 0.18987 0.14754 0.0052937 0.060571 0.21599 0.025444 -0.12179 -0.12031 0.095598 0.10277 0.15016 0.03539 0.054963 0.13884 -0.23379 -0.10687 0.10715 -0.10289 0.073744 -0.065772 0.11987 -0.039612 0.046685 -0.088579 -0.041283 -0.095087 -0.098444 0.10094 0.047967 0.060632 -0.0048506 -0.23752 0.0016254 -0.074862 -0.12602 0.089925 0.041006 -0.12892 0.13066 0.038356 0.031578 0.20951 0.14767 0.058122 -0.091957 0.02654 -0.10843 -0.056681 0.18137 -0.028883 -0.11981 0.14418 -0.0058641 -0.29899 -0.018798 0.055763 0.2393 -0.10397 0.20084 -0.06468 0.012026 0.014048 0.050376 0.11482 0.10411 -0.030947 -0.20011 -0.037295 -0.018394 0.0064796 -0.029593 0.48378 0.19429 -0.0083358 0.14544 -0.18586 -0.14167 -0.18865 -0.1808 0.018483 -0.038693 0.14478 0.087265 -0.13551 0.043696 -0.017489 -0.093709 0.16447 0.22759 -0.024671 -0.052462 0.14843 0.093161 0.011207 -0.0016649 0.0014582 0.086509 -0.28079 -0.029108 -0.020736 0.029728 0.0081939 0.035823 0.051107 0.084247 0.042399 -0.055352 0.02962 -0.085832 0.0017267 0.083934 0.20811 -0.11746 0.041832 -0.076741 0.21547 0.18041 -0.11406 0.17319 -0.040616 0.087042 -0.19407 -0.13369 0.027571 0.14993 0.29514 -0.07913 -0.0089896 0.16238 -0.095763 -0.057958 0.17331 -0.011025 -0.019146 0.13273 0.096379 0.18911 -0.093623 -0.090547 -0.018407 -0.067093 0.10792 0.1063 0.15548 0.03379 0.049731 0.12576 -0.11027 0.0005123 -0.32415 -0.13349 -0.2202 0.081141 -0.076762 0.063992 0.02404
w -0.23309 0.059509 0.010961 -0.27919 -0.14554 0.13224 -0.1316 -0.039653 -0.1006 -0.18109 -0.061136 0.24226 0.11102 -0.11933 -0.028113 0.20502 -0.040836 -0.3143 0.047691 -0.080323 -0.0021507 0.041583 0.10436 -0.11438 -0.16917 -0.027922 0.018177 -0.36083 -0.031735 0.14041 -0.1438 0.18637 0.10823 0.095209 -0.027294 -0.039456 0.033588 0.21512 -0.11103 -0.11749 0.022503 -0.045539 -0.13475 0.14181 -0.032321 -0.47924 0.17349 0.074623 0.061054 -0.054212 0.061778 -0.0033009 -0.04154 0.070289 0.21675 -0.2422 -0.077757 -0.026682 0.19597 0.15044 -0.040578 0.19803 -0.23909 -0.0115 -0.084927 -0.16601 0.36863 0.46021 0.12505 -0.10137 0.23325 -0.22999 -0.19068 0.069531 -0.16819 0.22446 0.069073 -0.15141 -0.034554 0.13213 -0.044723 -0.013241 0.31702 0.060242 -0.085433 0.0074272 0.055466 0.16323 0.17186 -0.30726 -0.078565 0.027956 -0.41805 0.044285 0.097392 0.053841 0.10017 0.0056565 -0.029579 -0.1379 0.11883 0.093122 0.085286 -0.032524 0.13072 -0.082263 -0.10886 -0.11273 -0.0071458 -0.074177 0.10568 0.17253 0.12454 -0.17792 -0.050751 0.21892 -0.063818 0.22448 0.0063411 0.26322 0.036985 -0.062168 0.051081 -0.057421 0.15594 0.15133 0.084619 -0.03174 -0.14393 -0.069591 0.081202 -0.13995 -0.089952 -0.29032 0.074671 -0.034701 0.0016516 0.12243 -0.25701 -0.25316 -0.080296 0.16124 -0.28584 0.12309 0.14611 0.044597 0.088684 0.12417 0.13853 -0.072786 -0.18417 -0.043898 0.15255 0.17442 0.024921 -0.1236 -0.064225 0.1607 0.021429 -0.23185 0.17046 -0.084452 0.068883 -0.084635 0.12677 -0.035357 -0.037071 0.21872 -0.090638 -0.060574 -0.04315 0.26477 -0.23125 -0.041633 -0.049091 -0.19596 0.074476 0.045017 -0.23115 0.22337 0.2052 -0.17408 -0.029236 0.31105 0.26034 0.072675 0.17168 0.25071 -0.26193 0.065142 -0.015895 0.012205 0.093996 0.054749 0.1308 0.17439 0.0086495 -0.18231 -0.37352 0.0048857 0.13618 0.27084 0.00035653 -0.16665 -0.067275 0.2184 -0.022087 -0.043169 -0.050803 0.038087 -0.075289 0.15146 -0.12259 -0.10862 -0.063116 0.48566 0.11228 -0.064318 -0.011103 -0.18104 0.054992 -0.050948 -0.02879 -0.12229 0.095883 0.062094 -0.16332 0.037376 0.17887 0.12321 -0.055365 0.19401 0.11168 -0.051466 -0.16089 0.24437 0.063999 0.055325 -0.068782 0.11449 0.19559 -0.29053 -0.041429 -0.016151 0.31697 -0.071082 -0.033337 -0.20322 0.025826 -0.043118 -0.077717 0.1469 -0.1136 -0.1355 -0.031433 0.1398 -0.14926 0.14278 -0.095811 0.14996 0.1672 0.040177 0.30715 0.085163 0.18103 0.11019 0.0026037 0.14154 -0.077609 0.15569 -0.12005 0.093293 0.111 -0.073248 -0.23254 0.12657 0.11113 0.13216 0.23121 0.066096 0.2432 -0.09602 -0.088741 -0.053084 -0.084698 -0.039351 -0.01179 0.17794 -0.051441 -0.070718 0.055903 -0.11196 -0.14291 -0.1011 -0.14261 -0.32977 -0.036369 -0.07135 -0.049981 -0.024248
- 0.10435 -0.0073197 0.14432 -0.40272 -0.069138 0.36047 -0.13217 0.1845 0.24795 -0.16378 0.0074095 0.5246 -0.0222 -0.13208 0.01055 0.60243 0.24457 -0.080997 0.1247 -0.15222 -0.063574 0.39729 -0.19875 -0.26676 -0.37961 0.011208 -0.063577 0.045232 0.1364 -0.18359 0.1857 0.032047 -0.31745 -0.0026573 -0.19526 -0.019303 0.044423 -0.011288 -0.29408 0.33826 0.20753 -0.017897 -0.11765 -0.22647 0.086236 -0.17177 0.33224 0.25416 0.0231 0.021825 -0.19551 -0.27395 -0.19285 -0.091012 0.21104 -0.09393 -0.25494 0.06321 0.21934 0.17235 0.018678 0.16064 -0.3063 -0.074558 0.13163 0.034421 0.28039 -0.22888 0.18838 -0.26045 0.15447 -0.012789 0.18284 -0.24533 -0.17267 -0.11232 0.16639 -0.15142 -0.18652 0.14889 0.013846 0.020906 0.013725 -0.29551 0.039482 0.065974 0.30083 -0.015773 0.087609 -0.0072606 -0.33138 0.17675 0.17729 0.12164 -0.15749 -0.27151 0.098485 -0.10154 -0.25231 -0.2476 -0.099802 -0.35314 0.051819 0.052849 -0.09161 -0.24557 -0.07494 0.010187 -0.021636 -0.054891 0.029033 -0.028829 -0.060851 0.1111 0.29089 -0.04854 -0.079134 -0.11308 0.0035419 -0.018787 0.039607 -0.048154 -0.099023 0.44783 0.10202 0.049671 0.25323 -0.0068615 0.13548 -0.063659 0.077096 -0.081399 0.17386 -0.157 -0.1042 -0.074312 -0.014984 -0.20876 -0.10232 -0.081166 -0.12941 -0.082175 -0.066124 0.30665 0.11471 0.24416 -0.17078 -0.029936 0.18803 -0.07905 -0.41716 0.058141 0.091421 -0.059984 0.23478 0.038269 -0.13434 0.37223 -0.29946 -0.12195 0.0099616 -0.098672 0.23358 0.044816 0.18308 -0.24528 -0.24581 -0.029942 -0.12962 -0.061344 0.25171 0.15865 0.042167 0.15407 -0.083618 -0.40834 0.0052708 -0.12793 0.15086 0.15075 0.39421 -0.125 0.26676 0.42304 0.15793 -0.0046288 -0.26706 -0.11754 -0.019777 0.31015 -0.062869 0.035055 0.17316 0.076502 -0.1447 0.13954 0.18712 -0.19263 0.31126 0.06824 0.28762 -0.059544 0.15155 0.034247 -0.085094 -0.32215 -0.08832 -0.09505 0.073848 -0.083133 0.035715 0.11427 -0.12405 -0.39834 -0.069143 0.2646 -0.029184 -0.25831 0.064546 -0.36263 -0.0027799 -0.15782 -0.29157 -0.074839 0.1089 0.37549 0.15284 0.083674 0.16121 0.32622 -0.2645 0.033519 0.0058039 0.0041908 -0.17876 -0.12872 -0.13738 -0.11297 -0.26558 -0.0031471 -0.25976 0.0082305 -0.13358 -0.15671 0.33084 -0.046415 0.23154 0.11258 0.22381 -0.046263 -0.27798 0.06439 -0.17817 -0.008829 -0.049273 0.19384 -0.040972 0.093696 -0.073382 0.3311 0.049729 0.14399 0.097986 -0.089687 0.26954 -0.19954 -0.23309 0.024655 0.11928 0.26008 -0.34207 -0.17329 0.13537 -0.29012 0.01221 0.050413 -0.029183 -0.12265 0.29769 0.19079 0.065753 -0.24821 -0.0039122 0.08387 -0.038861 -0.066129 0.11509 0.10723 -0.1371 -0.088562 0.12783 0.094401 -0.11331 -0.15143 -0.11111 -0.47949 0.11373 -0.23331 -0.058733 -0.0013539
) 0.11507 0.20473 0.21936 -0.39124 0.0094778 0.14301 0.094917 -0.07127 -0.19077 -0.12289 0.033263 0.12945 -0.24103 0.1389 -0.089413 0.59272 -0.0028784 -0.093908 -0.033852 -0.060429 0.18271 0.19438 0.1047 -0.21037 -0.078029 0.14443 -0.16112 -0.12907 0.075906 -0.2528 -0.084775 0.22247 -0.0084096 0.15715 -0.25586 0.11843 -0.14983 0.047323 -0.030789 0.14088 0.073971 -0.013761 -0.0083472 -0.1841 0.11292 -0.317 0.17294 0.0016269 -0.032678 -0.24525 -0.0018648 -0.17247 0.087089 0.18887 0.16702 0.038131 -0.16464 -0.042907 0.48386 0.11066 0.03095 0.094518 -0.041144 -0.1258 -0.019708 -0.074248 0.21404 -0.20279 -0.071895 -0.21397 0.070564 -0.063374 0.14632 -0.01382 0.018185 0.077246 0.084658 -0.053078 0.021724 0.15177 -0.038262 0.14148 -0.047479 -0.037063 -0.10594 -0.0016367 0.079759 0.11561 0.012529 0.14208 -0.10779 0.16313 0.033184 0.26891 -0.11157 -0.13957 0.11726 -0.038835 -0.12498 -0.16177 -0.022131 0.0022793 0.023223 0.068592 0.21667 0.089222 -0.25317 -0.00995 0.083304 -0.010805 0.096345 -0.28577 -0.24804 0.007942 0.1251 0.23941 -0.057803 0.10088 -0.1767 -0.079961 -0.19006 -0.03862 0.021407 -0.14808 0.0070754 0.12746 0.16802 0.047931 -0.010534 0.031593 0.29872 -0.017741 0.038199 0.094249 -0.13607 -0.13593 -0.10231 0.010407 -0.19176 0.049301 -0.14586 0.19607 -0.034533 0.27967 0.1977 0.11262 0.039144 0.028463 0.22625 -0.082631 -0.18239 -0.087378 -0.045265 0.073856 0.13943 -0.15523 0.092485 0.075143 -0.29693 -0.16284 -0.20661 -0.18546 0.070721 0.091724 0.12996 -0.17021 -0.15061 -0.028326 0.021065 0.04788 0.078712 0.25554 -0.01437 0.046491 -0.071156 -0.15701 0.179 0.021486 0.022672 0.03332 0.17895 -0.27447 0.16643 0.17513 -0.0050875 0.15133 -0.04286 -0.25362 -0.047862 0.090556 -0.081294 0.023592 0.35591 0.056817 -0.12945 -0.037627 -0.11346 -0.36038 0.0056773 -0.028038 0.28294 -0.098589 0.13782 0.037467 -0.1459 0.099231 -0.086312 0.26442 0.14909 0.0086055 -0.19894 -0.038263 0.047949 -0.063241 -0.070014 0.42052 -0.048146 0.014234 0.053957 -0.087723 -0.27953 -0.11335 -0.067139 -0.041503 0.10294 0.22505 -0.0013856 -0.24239 0.064669 -0.034918 -0.21667 0.2624 0.22382 0.015379 -0.18927 0.11666 0.17572 0.2163 -0.12129 0.15435 -0.075068 -0.1945 -0.098432 0.12999 0.099316 0.11662 0.076573 -0.11951 0.15331 0.0037134 -0.18318 -0.13878 -0.088785 0.009141 0.0766 0.26018 -0.024761 0.17883 0.003304 0.1774 -0.031168 -0.11681 0.14278 0.0044314 -0.064516 0.0032145 -0.10614 0.13159 0.12942 0.15464 -0.40762 -0.15613 -0.045645 -0.030043 0.050462 0.20516 0.091135 -0.14806 0.30593 0.14437 0.23149 -0.23478 0.068746 -0.13938 -0.01109 0.034446 -0.06525 0.091794 0.096882 0.028939 0.10027 -0.091787 -0.048211 0.013585 -0.24443 -0.31019 0.084622 -0.028243 -0.18003 -0.1066
( 0.090128 0.24503 0.2705 -0.38219 -0.0070678 0.15328 0.106 -0.069377 -0.13433 -0.10448 0.078972 0.10274 -0.26705 0.14905 -0.068892 0.63216 0.010237 -0.14083 0.009843 -0.067724 0.17422 0.22868 0.098661 -0.19994 -0.052942 0.17677 -0.16637 -0.15323 0.10123 -0.24295 -0.11435 0.17888 -0.01938 0.17468 -0.25984 0.10537 -0.20379 0.0096088 -0.01548 0.18023 0.078119 -0.067137 0.015801 -0.25076 0.088244 -0.34201 0.22719 -0.0072851 -0.073059 -0.21904 -0.021929 -0.19421 0.094813 0.18775 0.13953 0.048637 -0.14925 -0.1022 0.41189 0.12113 0.047623 0.088838 -0.0085379 -0.17949 -0.067901 -0.070954 0.26678 -0.20562 -0.057063 -0.20374 0.059763 -0.05699 0.17849 -0.035045 0.0024072 0.054832 0.093621 -0.0075598 0.016392 0.15505 -0.097386 0.14709 -0.057757 -0.018261 -0.14381 -0.072272 0.089823 0.089459 -0.020959 0.12931 -0.080124 0.17642 0.09339 0.27447 -0.05404 -0.13044 0.095825 0.0065225 -0.15813 -0.10599 -0.040898 -0.027295 -0.028219 0.11271 0.21396 0.074513 -0.20756 0.014085 0.10982 0.045359 0.021284 -0.26793 -0.26092 -0.042474 0.16775 0.31951 -0.13555 0.077474 -0.14927 -0.11671 -0.20204 -0.038601 -0.05067 -0.10141 9.6096e-05 0.17025 0.10913 0.023251 0.011446 0.013805 0.33514 0.034711 0.040501 0.13086 -0.094222 -0.086441 -0.11826 0.10382 -0.20571 0.0052375 -0.13611 0.15827 -0.023971 0.29017 0.13041 0.10903 0.011304 0.0075031 0.19977 -0.09822 -0.14539 -0.074266 -0.073887 0.033954 0.11011 -0.098402 0.12225 0.037972 -0.20914 -0.15105 -0.19797 -0.20861 0.02998 0.1053 0.12195 -0.17443 -0.21448 0.0072485 0.042014 -0.026201 0.09537 0.25373 -0.013838 0.026871 -0.074399 -0.19459 0.10908 -0.021196 0.068641 0.010152 0.17425 -0.27384 0.12418 0.17567 0.010344 0.11525 -0.077564 -0.2807 -0.073249 0.04321 -0.092506 -0.027866 0.36745 0.050706 -0.11544 -0.070658 -0.11895 -0.32474 0.038268 -0.048639 0.21609 -0.1216 0.14304 0.059834 -0.13021 0.1082 0.011448 0.34225 0.16266 -0.01564 -0.18306 -0.029528 0.087686 -0.037525 -0.041632 0.43601 -0.013999 -0.0001635 0.073631 -0.1421 -0.27341 -0.14859 -0.10246 -0.054445 0.10434 0.20154 -0.021525 -0.21375 0.054642 -0.038262 -0.20928 0.29551 0.15299 -0.0038936 -0.16183 0.10576 0.2019 0.21957 -0.10101 0.17624 -0.10448 -0.2269 -0.053637 0.11091 0.087913 0.08822 0.089889 -0.1962 0.18087 0.021556 -0.24318 -0.090063 -0.072805 0.010014 0.049975 0.23368 -0.010513 0.16062 0.0015896 0.15346 -0.071471 -0.043434 0.10525 0.01772 -0.085679 0.024826 -0.12813 0.12888 0.10634 0.17262 -0.4244 -0.1427 -0.073307 -0.11673 0.04361 0.2256 0.087826 -0.2113 0.27103 0.16328 0.18682 -0.22222 0.051645 -0.12518 0.029615 0.020498 0.0062147 0.10757 0.10791 0.019113 0.075229 -0.037501 -0.037982 -0.036271 -0.22445 -0.29423 0.042297 -0.030052 -0.19785 -0.074901
' -0.020447 0.3283 0.16963 -0.45167 -0.057588 0.60057 -0.35374 -0.0068218 -0.088466 0.036474 0.21288 0.38005 -0.20037 -0.0192 0.035075 0.44914 0.19925 -0.13217 0.079455 0.079705 0.32139 -0.077501 -0.1865 0.0026206 -0.0061715 -0.043118 0.30404 -0.16687 0.21387 -0.20697 0.0093756 0.23432 -0.18968 -0.053592 0.043333 -0.16256 0.095616 0.13432 -0.338 -0.015379 0.38367 -0.064146 0.00857 0.041357 0.33715 -0.3462 0.3167 0.28925 -0.15599 -0.05894 -0.36524 -0.25759 0.11479 -0.0041698 0.1578 -0.12131 -0.14171 -0.22356 0.39653 0.21101 0.067965 0.33689 -0.1337 -0.033045 -0.12832 -0.34668 0.34085 0.21777 -0.066139 -0.11783 -0.15322 -0.22865 0.10735 -0.26083 -0.078381 -0.19078 -0.049496 0.13988 -0.053172 -0.21853 -0.0083667 0.41646 0.12464 -0.1114 -0.020289 0.098561 0.17709 -0.027915 0.18582 0.099517 -0.052288 0.19195 -0.011735 0.2829 0.036337 -0.13584 0.36974 0.027445 -0.42268 0.0041435 -0.13766 0.070933 0.045084 -0.010683 0.36371 -0.0084351 -0.15026 0.043389 0.019669 0.19383 -0.23833 -0.28036 -0.15475 0.21204 0.17441 0.41437 -0.096126 0.097149 -0.17593 0.0053027 -0.24483 -0.10716 -0.46806 0.16543 -0.075229 0.01099 0.1668 -0.01894 0.078362 -0.12998 0.19949 -0.14578 0.20714 -0.1126 -0.05249 0.11242 -0.033317 0.11874 -0.047929 0.0086959 -0.45086 -0.014067 -0.072331 0.5027 0.31236 -0.040647 0.2689 -0.49895 0.09991 -0.20615 -0.091622 -0.15063 0.16612 0.26774 -0.069255 -0.019202 0.1574 0.38013 -0.42809 -0.2101 -0.1573 -0.33179 0.044242 -0.021673 0.1183 -0.25321 -0.10122 0.12727 0.22081 0.091931 0.32782 0.24396 0.11543 -0.1329 -0.24779 -0.1872 -0.12725 0.019518 0.13293 0.052148 0.44338 -0.088197 0.18066 -0.073696 0.27346 0.098291 -0.17404 -0.30746 -0.10726 0.036342 -0.31089 0.19149 0.18011 0.10352 -0.15839 0.062345 -0.22026 0.11547 0.045114 0.078183 0.18241 -0.022454 -0.04219 0.030663 0.078388 -0.012396 0.022726 0.10536 0.079212 -0.073917 -0.23638 -0.14093 0.010184 -0.13576 0.18659 0.091928 -0.035978 -0.020503 0.106 -0.2457 -0.3462 -0.033023 -0.31284 -0.0075306 0.067075 0.20653 -0.16688 0.15261 0.092742 -0.11143 -0.44487 0.16591 0.15454 -0.199 -0.23469 0.039631 0.070269 -0.043378 -0.1746 -0.065403 -0.08278 -0.17547 -0.034782 -0.088369 0.24588 0.10527 0.24962 -0.12665 0.29139 -0.20393 -0.077677 -0.11854 -0.33859 -0.041398 -0.1303 0.0014107 0.29662 0.124 -0.0062803 0.30228 -0.17814 0.017599 0.00076552 0.10398 -0.22107 0.097353 -0.2114 -0.19363 -0.067584 0.028432 -0.25652 -0.033798 0.21246 -0.28325 -0.049785 0.39994 -0.04078 -0.23865 0.38286 0.18508 -0.025235 -0.38044 0.16835 -0.1322 0.22036 0.24812 0.099948 0.034075 -0.19402 -0.031902 0.33936 -0.10047 0.014966 -0.12858 -0.47042 -0.092159 0.2332 0.032249 -0.16652 0.20047
i -0.069134 -0.024512 -0.063868 -0.27768 -0.1123 0.13638 -0.055533 -0.020398 -0.23665 0.086811 0.0022497 -0.01176 0.086265 -0.044008 -0.15124 0.33332 0.14215 -0.10944 0.15814 -0.043665 -0.13779 0.22664 -0.03709 -0.249 -0.12635 0.12109 0.060766 -0.093349 -0.04501 -0.11315 -0.20123 0.0059165 0.028391 0.034386 0.015686 0.094311 0.19928 0.19734 -0.20347 0.081865 -0.08548 -0.04191 0.082537 -0.032283 0.21754 -0.21776 0.010326 -0.077143 0.11574 0.045048 0.060237 -0.17954 0.029701 -0.035306 0.037448 0.039019 -0.10764 -0.08679 0.27325 0.1885 0.019632 -0.0094198 -0.056895 -0.04877 -0.003234 0.19728 0.1325 0.16701 0.0066136 -0.002527 -0.0016572 -0.20189 -0.1877 0.085548 0.027404 -0.074785 0.33924 -0.17924 -0.064633 0.08664 -0.070131 -0.16069 0.25029 -0.081992 0.00050389 0.041298 0.11993 0.09357 0.13069 0.070991 -0.17162 0.12573 -0.1113 0.13593 -0.0026203 -0.064529 -0.23643 0.14007 0.0061688 -0.26531 0.085197 0.014119 0.059419 0.0926 0.12328 -0.065666 -0.22539 0.050335 0.27812 0.043491 0.11058 -0.06897 -0.10611 0.027237 -0.0061486 0.049597 -0.031521 0.079713 0.055329 -0.054619 -0.11515 0.028361 -0.14065 -0.17929 0.054649 0.10777 0.124 -0.13924 -0.01057 -0.040297 0.15778 0.063792 0.17569 0.0079791 0.0022621 0.0053253 -0.016641 0.084218 -0.05751 0.12566 0.11737 0.01482 0.043536 0.015304 -0.0026579 0.01676 0.044436 0.02819 0.053218 0.017095 -0.25934 -0.088659 0.18843 0.12621 0.11409 0.019657 0.08549 0.13414 0.027721 -0.10384 0.10243 -0.091045 0.080432 -0.12774 0.052218 -0.091005 0.011462 -0.014093 0.094032 -0.16222 -0.069025 0.0025347 -0.091541 0.063918 -0.23387 -0.33893 0.095898 -0.11974 -0.032054 0.026409 0.0053756 -0.20884 -0.026572 0.091101 0.081185 0.14343 0.0738 0.41818 -0.29146 0.021509 -0.056732 0.087198 -0.073121 0.073642 -0.014709 0.040963 -0.073107 -0.15749 -0.094423 -0.009979 0.19183 -0.050923 0.18583 -0.067503 -0.00049007 0.069904 -0.027005 0.11133 -0.047752 0.030744 -0.071584 0.049506 0.062995 -0.074311 0.1359 0.20609 0.076783 -0.14198 0.026588 -0.20115 -0.020248 -0.12093 -0.12491 -0.01345 -0.084216 -0.043944 0.031682 -0.095228 0.072474 -0.17416 0.029098 0.25402 0.075607 -0.082555 -0.08363 0.12733 0.029735 0.018381 -0.2143 0.0608 0.054359 -0.31717 -0.13595 0.080072 0.0098997 -0.034826 0.02451 0.02401 0.25137 0.12389 -0.12973 0.15355 -0.10994 0.0069675 0.10482 0.14203 -0.11482 0.089313 0.0043051 0.0069684 0.2426 0.018629 0.25003 -0.25531 0.013265 -0.12546 -0.093967 0.095565 0.17861 0.22137 -0.031759 -0.2786 0.19101 -0.074313 -0.088947 0.15318 0.02179 -0.079825 0.077761 0.22855 0.11908 0.077448 0.0083926 -0.16125 -0.098196 0.047922 -0.021286 0.22494 -0.11202 -0.02384 0.014493 -0.10449 -0.016831 -0.27077 -0.1867 -0.013008 -0.015736 -0.056759 -0.09514 0.12375
– -0.015998 0.055586 0.16272 -0.68728 0.037992 0.35361 0.032862 -0.012304 -0.083311 -0.1257 0.043917 0.20012 -0.02185 0.12527 -0.1612 0.43777 0.11105 -0.17359 0.088355 0.06829 0.28857 0.063123 -0.039693 -0.13364 -0.19792 0.064694 0.12472 -0.16786 0.11652 0.030406 0.090632 0.31909 0.0074664 -0.15643 0.11512 -0.088531 -0.093428 0.31774 -0.17939 0.13265 0.19564 -0.21722 -0.084181 -0.070657 0.21258 -0.27607 -0.013366 0.17792 -0.10657 -0.041702 0.09283 -0.35557 0.069715 0.03189 0.017843 -0.22444 -0.24676 0.012412 0.28097 0.20272 0.19131 0.29649 -0.23912 -0.0025843 -0.34061 -0.22495 0.32944 -0.11325 0.042467 -0.14469 0.1037 -0.27856 -0.16362 0.092018 -0.19192 -0.1452 -0.01889 0.033885 -0.0073168 0.042367 0.029534 0.25921 0.0984 -0.15 -0.033496 -0.069624 0.095169 0.072198 -0.1008 0.056533 -0.050917 0.10151 -0.070654 0.21262 0.014351 -0.33472 0.32295 0.11023 -0.15538 -0.13249 -0.12329 0.34334 0.14415 0.1123 0.14149 0.1383 -0.26044 0.12708 0.0084603 -0.18421 -0.20099 -0.17968 0.11176 -0.031154 0.18086 0.19545 -0.10689 0.23685 -0.30251 -0.029256 -0.19187 0.11813 -0.3473 0.083805 0.089578 0.071629 0.2632 0.24527 -0.10953 -0.035896 0.21581 0.0092189 0.15509 -0.0059208 0.020242 -0.078901 -0.059493 -0.0068532 -0.1593 -0.0071695 -0.28994 0.0728 -0.15692 0.65596 0.21501 0.10706 -0.06576 -0.34637 -0.011097 -0.22419 -0.12338 -0.030108 0.081857 0.18762 0.095395 0.069167 0.056098 0.22247 -0.44518 -0.10227 -0.064646 -0.22932 0.12347 0.16007 0.15819 -0.33743 -0.090658 0.037922 -0.031427 0.12957 0.039529 0.25763 -0.17553 -0.072674 -0.46425 -0.21658 0.043734 0.033653 0.0020738 0.16785 0.13209 -0.25444 0.0018417 -0.05088 0.19071 0.12025 -0.22658 -0.31635 -0.082268 0.11698 -0.21167 0.090997 0.19001 -0.033419 -0.048451 0.10936 -0.061172 -0.039405 0.097683 -0.01237 0.1306 0.092832 0.08448 0.11764 -0.10686 -0.096995 -0.18804 0.26896 0.029308 0.14489 -0.19995 -0.073678 -0.051262 -0.14508 -0.016458 0.29385 -0.0046653 0.12149 0.08472 -0.2345 -0.25623 -0.079945 -0.0085408 0.17215 0.044286 0.038803 -0.15411 0.10618 0.12933 0.16405 -0.31503 0.059099 0.025209 0.11491 0.034835 -0.055869 0.015322 0.20456 0.035305 0.20536 -0.0067827 -0.2602 -0.032785 -0.021195 0.18676 0.18874 -0.029473 -0.023961 0.31309 -0.15308 -0.15603 0.016774 -0.072197 -0.10132 -0.13383 0.01208 -0.0036463 0.094037 0.019417 0.44095 -0.018678 0.12441 0.21141 -0.060124 -0.098433 0.17969 -0.012343 -0.020196 -0.0041247 0.067341 -0.16474 -0.001984 0.13525 -0.26032 -0.1622 0.13712 -0.12374 -0.071471 0.28996 0.13508 0.24496 -0.14788 0.042122 -0.38526 0.068665 0.083828 -0.076549 0.19326 -0.14551 0.055615 0.13817 -0.059376 0.17893 -0.069627 -0.39934 -0.23819 0.22894 -0.16642 -0.04207 -0.020391
na 0.23416 -0.042926 0.05373 -0.076679 -0.19657 0.058932 0.030597 0.020218 -0.23507 -0.083405 -0.076783 -0.012693 -0.13745 0.022062 0.049027 0.3391 0.060151 -0.3169 0.042552 -0.020942 -0.057797 0.08598 0.057614 0.028579 -0.08908 0.038045 0.18903 -0.16688 0.10739 0.1888 -0.15125 0.18318 0.11756 0.31687 0.22168 0.24853 0.21428 0.18555 -0.017728 0.23236 -0.069314 0.053643 -0.14078 -0.22118 0.0030482 -0.32504 0.3775 0.12986 0.18761 -0.39944 0.24656 -0.49434 -0.058444 0.011941 0.15916 0.067245 -0.17127 -0.077477 0.30736 -0.30906 0.072368 0.07132 0.058227 -0.029975 -0.2038 -0.068757 0.10927 0.31507 -0.022467 -0.046301 0.24537 -0.019533 -0.49771 -0.0031603 0.084044 0.18806 0.22276 -0.18784 -0.15342 0.060358 -0.29199 -0.26052 0.29886 0.072283 0.01104 -0.29547 0.09007 0.11368 0.33017 0.030419 -0.18162 -0.31828 -0.23513 -0.096483 -0.055554 -0.11212 -0.060066 0.18116 -0.017031 -0.46124 -0.027949 0.1859 -0.07526 -0.01656 0.093556 -0.016279 -0.14099 0.17432 0.17844 -0.14247 -0.004614 0.082485 -0.17064 -0.027271 0.16069 0.21669 0.024648 -0.012711 0.04458 0.31045 0.056521 -0.22241 -0.16169 -0.039315 -0.05568 0.16948 0.025705 -0.14346 0.069064 -0.01552 0.2309 0.085531 0.065069 -0.17583 0.041297 -0.041444 -0.094361 0.0098401 0.045371 -0.03948 0.13489 -0.18322 -0.25409 0.035456 0.23924 0.1435 0.18165 -0.093289 0.21812 -0.023248 -0.2235 -0.475 -0.012037 0.21035 0.067989 -0.036809 -0.15663 0.08605 0.048937 -0.25882 0.2083 0.034734 -0.020047 -0.024556 -0.14948 -0.31679 -0.21132 -0.24537 -0.083971 -0.10454 -0.093079 -0.096365 0.10366 -0.17468 -0.27668 0.10686 0.12478 -0.061121 -0.19244 0.21432 0.18056 -0.59154 0.13662 0.30542 -0.16792 0.28444 0.14585 0.13528 -0.30029 0.32199 0.16614 -0.29956 0.16011 0.23235 -0.064629 0.19797 -0.073984 -0.1714 0.021143 0.14088 -0.022356 0.020765 -0.07109 -0.09557 -0.14257 -0.039166 -0.18885 -0.042875 -0.013432 0.17909 0.03035 0.26427 -0.44702 -0.033907 -0.048854 0.53331 0.19101 0.14345 -0.018332 -0.076644 0.020434 0.054917 -0.2585 -0.069635 -0.21237 0.29579 0.23572 0.11662 0.025513 -0.057895 0.0081574 0.010671 -0.051996 -0.17833 -0.058224 -0.19352 -0.057195 0.20509 -0.082008 0.072907 0.1359 -0.035808 -0.032434 0.024208 0.32562 0.040213 0.022801 -0.10069 -0.030553 0.067831 -0.27655 0.097428 -0.021386 0.17694 0.025656 -0.31263 -0.16567 -0.12596 -0.20686 -0.080786 0.043657 -0.22414 0.33269 0.04342 0.10004 -0.27925 0.10414 -0.096791 -0.2612 -0.033133 0.078637 0.030721 0.036631 0.12014 -0.16786 0.10936 0.032288 0.17543 0.036611 0.13274 -0.10217 0.044476 0.16143 -0.1986 -0.12709 -0.075623 0.0036533 0.10141 -0.073222 0.17178 0.12346 0.26044 -0.16292 -0.41342 -0.31573 -0.010617 -0.049158 -0.16047 -0.012133 -0.20873
z -0.13824 -0.086137 -0.065198 -0.15411 -0.047071 -0.096119 -0.0046397 -0.13834 -0.30349 -0.058991 0.11571 -0.21157 -0.084284 0.046929 -0.20944 0.32591 0.21392 0.022116 -0.055062 0.17889 0.06473 0.30329 0.13061 -0.2263 -0.12278 0.27218 -0.038758 -0.19535 -0.14801 -0.0070825 -0.098223 -0.019025 0.098613 0.25525 -0.023493 -0.19214 0.11539 0.1667 0.12191 0.074083 -0.19279 -0.17627 -0.068191 -0.043741 0.23337 -0.41808 -0.092632 0.15472 -0.023908 -0.12125 -0.024417 -0.25803 0.18375 -0.11099 0.26455 0.24507 -0.12016 -0.34117 0.35463 0.34079 0.048977 0.2356 -0.31185 -0.082441 -0.16922 0.17321 -0.036284 0.22733 -0.14147 -0.0020884 -0.06357 -0.20887 -0.26761 -0.19572 -0.17146 -0.067687 0.38109 -0.1953 -0.01024 0.13223 0.1827 -0.1217 0.15362 -0.20854 -0.13151 -0.30431 0.23998 0.0038662 0.15846 0.19397 -0.11161 0.03753 0.24884 -0.014389 -0.017134 -0.08755 -0.36202 0.07955 -0.035612 -0.19683 0.041286 -0.10508 -0.076827 0.073774 -0.007115 -0.14687 -0.2605 -0.30193 0.02049 -0.0041245 0.011765 -0.068856 -0.03199 0.024738 -0.1111 -0.034644 0.014396 0.16295 -0.092741 0.0092157 0.16446 -0.18395 -0.24297 -0.2245 0.089781 -0.019815 0.044081 0.16654 0.15474 0.0083462 0.081259 -0.036439 -0.1495 0.35705 -0.075062 0.061037 -0.18753 0.24254 -0.24326 -0.089542 0.10826 -0.21121 -0.077284 0.026493 0.0037251 0.14868 0.2032 -0.13237 -0.075395 -0.01348 0.010801 -0.066665 0.16583 0.03674 0.041451 -0.19133 0.13906 -0.16885 0.043738 0.033939 0.19527 -0.13206 -0.067245 -0.0017379 0.12192 0.14378 0.0088748 0.10307 0.22316 0.067026 0.0314 -0.022108 -0.091357 -0.2984 -0.28295 -0.21822 0.082056 -0.0038769 -0.020684 0.20708 0.035837 -0.29556 0.060121 -0.16407 0.13668 0.29027 0.037038 0.21823 -0.047649 0.11881 -0.10347 0.076829 -0.1519 -0.17368 -0.060698 0.020228 -0.010189 -0.18893 -0.065194 -0.061423 -0.15318 0.0045324 -0.034791 -0.22949 -0.042481 0.22811 -0.12498 -0.2062 0.25635 0.16296 0.06676 0.05158 -0.011043 0.051168 -0.089558 0.16428 0.0485 -0.15054 -0.19239 0.033949 -0.084262 -0.055913 -0.13449 -0.14875 -0.010335 0.48483 -0.21478 0.20499 0.12882 -0.24595 -0.059996 0.41931 0.25811 -0.074368 -0.089704 0.28803 -0.10587 -0.068107 -0.23603 -0.10949 0.031992 0.033936 0.14351 0.1743 0.042795 -0.23149 -0.02643 -0.050729 0.25781 0.061557 -0.18424 0.17315 -0.078774 -0.018784 -0.26447 0.07366 -0.061607 0.11927 -0.28472 -0.20167 0.005495 -0.0086053 0.28487 -0.40546 0.16649 -0.00492 -0.035489 -0.0091332 -0.21359 0.26478 -0.14256 -0.24022 0.24499 -0.17593 -0.13934 0.064634 0.20008 -0.084356 0.092645 -0.21447 0.19172 -0.31937 -0.24122 -0.019309 -0.0017365 -0.095097 -0.21582 -0.068664 -0.12877 0.021635 -0.17156 -0.094947 -0.012254 -0.11509 -0.094008 -0.4279 -0.045025 -0.080059 -0.21377 -0.24432
do -0.062796 -0.24542 0.027804 -0.42784 -0.16443 0.031423 -0.044814 -0.13268 0.22095 -0.1406 -0.018007 0.010909 0.099191 0.10248 -0.25113 0.47077 0.2292 -0.071016 0.046064 0.018036 -0.051901 0.19816 0.084536 -0.41839 -0.4689 0.097091 -0.10506 -0.071377 0.096982 -0.16481 -0.081289 -0.10615 -0.083674 -0.16477 0.081832 0.080288 -0.15442 0.18182 -0.019157 0.20103 -0.13937 -0.036841 -0.069355 0.33665 -0.046296 -0.3735 0.13334 -0.22336 0.14689 -0.29941 0.081681 -0.31406 -0.25166 0.063206 0.10327 -0.00033393 -0.24314 -0.30621 0.1545 -0.20487 -0.044513 0.011481 -0.18681 -0.12566 -0.043922 -0.032379 -0.098097 0.28342 -0.31945 -0.066796 -0.49696 -0.076832 -0.0045769 0.017025 0.038636 0.10394 0.19498 -0.29516 0.0033452 -0.031779 -0.33868 -0.33761 0.0958 -0.19452 -0.17395 -0.21774 -0.0096474 0.26473 -0.27518 -0.20989 0.0095193 0.024052 0.12422 -0.030033 0.0028877 0.058768 0.079795 -0.029706 0.096158 -0.28246 -0.11303 -0.12023 0.21004 0.18051 0.40735 -0.1715 -0.56475 -0.081092 0.26764 -0.22632 0.0958 0.1965 0.11154 0.17651 0.13144 0.022346 -0.10874 0.025413 0.071135 0.014595 0.091144 0.057399 -0.035291 -0.1896 0.25787 0.15512 0.022418 -0.22101 0.15025 0.27066 0.17109 -0.13093 -0.094866 -0.045728 0.081061 0.081652 -0.063381 -0.050246 -0.28335 0.069898 0.1219 0.2342 -0.14621 0.025593 0.38928 0.1035 0.1845 -0.26583 0.05803 -0.25041 -0.15496 -0.14974 -0.10683 0.1957 0.043198 0.16782 -0.10136 0.10449 0.15166 0.0043417 0.13817 -0.10887 0.11403 -0.14504 -0.21614 0.055676 0.23273 0.25677 0.055157 0.11715 -0.098611 0.20391 -0.34693 -0.18504 -0.3721 -0.11818 -0.13965 -0.35113 -0.071137 0.30159 0.19621 -0.21922 0.15274 0.028424 -0.13947 0.10419 0.21861 0.33413 -0.28541 -0.28451 -0.017636 -0.28899 -0.20692 -0.014689 -0.35927 -0.010295 -0.022775 0.0063458 0.054698 -0.086572 0.12246 0.01201 0.0020151 -0.31381 -0.16093 -0.15424 -0.11404 0.031443 0.060463 -0.043183 -0.1843 -0.19484 -0.1628 0.088998 -0.22208 0.22177 -0.038738 0.046064 0.079146 0.14536 0.027295 0.21167 -0.049395 -0.020209 0.38436 0.27145 -0.092214 -0.089111 0.2675 0.094352 0.22857 0.11468 0.15422 -0.092262 -0.16841 0.10143 0.15853 0.049358 -0.35462 -0.051518 -0.079356 -0.25215 0.22907 0.15879 0.36011 -0.10221 0.035167 -0.039812 0.071984 0.042525 -0.13065 0.38453 -0.18868 -0.12786 -0.13393 0.066761 0.15526 -0.10319 -0.1328 -0.20386 0.011962 -0.074875 0.11373 -0.062712 0.09997 0.30126 -0.056437 0.12899 0.076979 0.051929 -0.11642 0.12684 0.48609 -0.37024 -0.075174 0.50671 0.1797 0.070445 -0.13881 -0.13324 -0.13595 0.14404 -0.36057 -0.22218 -0.20732 0.1531 0.080986 0.10965 -0.14538 -0.11845 0.0062477 0.066626 0.078901 0.032563 -0.051213 -0.15922 0.27117 -0.17266 -0.26343 -0.079415
się -0.026442 0.15854 -0.034163 -0.35051 0.23849 0.15627 -0.25317 -0.13032 -0.039101 0.069508 0.053708 0.16456 -0.19998 -0.041836 -0.1769 0.01824 0.19187 -0.03852 -0.052328 0.15836 -0.44175 0.36045 0.0083667 -0.15337 -0.19288 0.00053115 -0.024497 -0.20442 0.021168 -0.11804 -0.10192 -0.14668 0.0080994 -0.057387 -0.033748 0.012983 0.23169 -0.0045171 0.023487 0.19631 0.15949 0.32766 0.26416 -0.031404 0.10255 -0.35568 -0.03163 0.16709 -0.12933 -0.28031 0.19213 -0.15778 -0.12582 -0.0060972 0.37484 -0.11464 -0.039605 -0.16812 0.13373 0.058746 0.022316 0.032559 0.15529 0.0003909 0.052899 0.061968 0.1171 0.32619 -0.14495 -0.0085118 0.0086806 -0.34977 -0.36827 -0.067669 0.027736 0.40634 0.17116 -0.068937 0.21345 -0.11641 -0.33204 -0.040475 0.089276 0.028214 -0.28897 -0.084792 -0.025829 0.11961 0.20229 -0.098915 -0.017311 -0.032776 -0.20234 -0.066972 -0.1749 0.30484 -0.18114 -0.23792 -0.40779 -0.44703 0.040296 -0.0041597 -0.15762 -0.066135 0.09268 0.11167 -0.19872 -0.040025 0.3189 0.092922 -0.24231 -0.01628 0.03097 -0.093614 0.037152 -0.14876 -0.072903 0.21447 0.17243 0.076046 0.010766 0.0029053 -0.056625 0.047973 0.25157 -0.050977 0.24611 -0.22318 0.24715 0.14841 0.17622 0.28808 -0.020899 0.021186 0.15091 0.20919 0.11434 -0.10049 0.064114 0.13157 -0.1976 0.052521 -0.10315 0.14387 -0.015657 0.083813 0.14716 -0.23264 0.41122 -0.20509 -0.39277 -0.029533 0.25445 0.30635 0.032102 -0.10654 -0.039907 0.25396 0.18172 -0.10596 0.27732 -0.16444 0.014474 -0.039979 0.030192 0.14628 0.12609 0.13347 -0.0026828 0.002921 0.12835 -0.064367 -0.23229 -0.20325 -0.091522 -0.060465 -0.12123 -0.13907 0.026995 0.27697 -0.26449 0.11888 0.037358 0.17267 -0.091433 0.26511 0.47541 0.20266 -0.08366 0.13986 -0.063589 0.44065 0.13481 -0.022121 -0.29621 -0.23267 -0.21255 -0.17289 0.01457 0.066288 -0.08143 0.21881 0.17365 -0.1222 -0.13468 0.23697 -0.1348 -0.092906 -0.20927 0.26263 0.33158 -0.0045829 -0.12234 -0.1906 0.039593 0.18588 0.076509 -0.053722 0.08611 -0.18011 -0.0064846 -0.1719 -0.22288 0.014057 -0.23238 0.52302 -0.11209 0.11367 -0.17592 -0.12812 -0.38974 0.013756 0.37724 -0.11583 -0.034273 0.36044 0.067713 0.14602 -0.046695 0.10922 -0.070288 -0.032979 -0.10987 -0.10922 -0.12671 0.19228 -0.10276 0.057943 -0.084731 0.012621 0.1072 0.23429 -0.065068 -0.032816 0.0026169 0.18066 -0.26381 -0.23866 -0.32992 -0.032973 -0.097379 -0.02411 0.36877 -0.12717 0.060865 0.071606 0.34369 -0.2405 -0.3065 -0.18028 -0.028553 0.13405 0.33935 -0.33905 -0.14214 0.071068 0.14403 0.3141 0.052186 0.038925 -0.039427 0.067879 -0.23535 -0.2184 -0.42513 -0.24265 -0.03373 0.1238 0.018765 0.095328 -0.083125 0.027434 0.10288 -0.24064 0.10472 -0.25754 -0.31287 -0.24178 0.10761 -0.11426
align 0.65212 -0.3221 0.20035 -1.8895 -0.0976 0.41496 1.0599 0.064374 0.55218 -0.50337 -0.61609 0.1613 -0.54676 1.0554 -0.02539 0.072054 0.72526 -0.090333 0.26744 0.32875 -0.090815 0.21863 -0.29773 -0.25992 -0.19324 0.36677 0.32623 -0.66506 0.03613 -0.12467 -0.55347 0.86339 -0.66812 0.22392 -0.32562 0.58725 -0.25915 0.31657 -0.44827 0.48542 0.48971 -0.6048 0.063117 0.37647 0.90354 -0.050701 0.28808 1.0252 0.51602 0.30842 0.24932 1.4396 -0.3595 -0.23781 -0.10952 -0.49162 -0.0078803 -0.40895 0.16514 0.15045 0.6162 0.41792 0.10912 -0.48494 0.3225 -0.11675 1.3504 -0.10661 -0.41693 0.19264 -0.5418 -0.099484 0.20724 -0.58495 0.46753 -0.63217 0.10231 0.1393 0.35148 -0.46621 -1.2448 0.26386 -0.032648 -1.1239 0.64049 0.84598 -0.33968 0.27829 0.12356 -0.082976 0.58116 0.48581 1.0067 0.37649 0.19314 -0.84005 0.00076614 -0.69502 0.93933 -1.1616 -0.84817 -0.7582 -0.64512 -0.84453 -0.53079 0.63386 0.5448 0.7063 -0.19839 -0.062404 -0.52524 -0.25145 -0.063548 -0.10948 0.18778 0.61324 -0.59748 0.20381 -0.64902 -0.6375 -0.3911 0.004568 0.024925 -0.063675 -0.6325 -0.19565 0.75657 -0.24551 0.70634 0.51108 0.0006749 -0.19371 -0.0042719 0.58727 -1.3874 0.021052 -1.0971 0.48774 0.74279 -0.17498 -0.081773 -0.25449 0.35558 1.1101 0.51436 1.1713 0.28297 -0.9455 0.44479 -0.019296 -0.39095 -1.0625 0.015818 -0.037874 0.37363 0.20453 -0.13572 0.73278 0.50209 -0.10431 -1.3202 -0.939 0.11488 -0.095515 0.6235 -1.409 -0.27231 0.087294 -0.79845 0.78494 -0.1031 0.10407 0.5779 0.1304 -0.59626 -0.58854 -0.74302 -0.65383 1.4852 0.24105 -0.50393 -0.18101 0.20571 0.18044 0.48707 0.33415 -0.82989 -0.13278 -0.14669 0.91315 0.35186 -0.059429 0.11902 0.39667 0.22597 -0.24211 -0.39454 0.19684 -0.72234 0.60103 -0.25303 0.74757 0.90744 -0.057575 0.031079 0.17158 -0.13591 0.10875 0.69373 0.40288 -0.50213 -0.77757 0.36427 0.7991 0.0033178 -0.29813 -0.03892 -0.29431 1.2928 -0.72782 -1.1217 0.31385 0.8904 0.10855 0.33995 0.099446 0.76223 0.7168 0.75492 0.088289 0.21966 0.60084 0.05892 -1.0164 0.32516 0.51589 0.070634 -0.44925 -0.51021 0.71126 0.20058 0.25613 -0.09192 0.43025 0.46096 -0.39667 -0.6434 -0.13089 0.66864 -0.3398 -0.94475 0.55909 0.19947 -0.30522 1.0343 0.73662 -0.12886 0.43282 -0.38275 0.18545 -0.024278 -0.27572 -0.012811 0.54828 -0.53885 -1.0113 0.72574 -0.091929 -0.42164 -0.29178 -0.28967 -0.91852 0.37025 -0.25205 -0.81454 1.253 0.63244 0.33441 0.50544 0.33063 -0.36333 0.74167 0.30295 0.081253 -0.29398 0.51401 0.16523 0.34675 -0.75367 -1.1549 0.11635 0.033659 0.385 0.3284 0.088606 -0.79199 -0.53943 -0.57247 0.1358 0.016575
roku -0.21875 -0.079217 0.067212 -0.54784 -0.28114 0.060828 0.023886 -0.10167 0.11725 -0.024714 0.070981 0.26108 0.14617 0.19139 -0.070155 0.049538 0.13743 -0.11788 0.31408 -0.0066276 -0.14651 0.062205 -0.061873 0.13289 -0.22801 -0.0037344 -0.1517 -0.15456 0.035989 0.20351 -0.08965 0.3408 0.21324 0.17395 -0.29836 0.010883 0.10951 0.48433 0.017555 0.095831 0.22056 0.025169 -0.25228 0.16382 0.19998 -0.58949 0.07049 -0.050851 0.020284 -0.027879 0.085049 -0.21092 0.15686 -0.052219 -0.047484 -0.31994 -0.26245 -0.17018 0.30517 0.4019 -0.1774 0.26016 -0.32714 -0.1215 -0.030125 0.023077 0.10794 0.14548 -0.017093 -0.25523 0.081256 0.13197 -0.16531 0.079391 -0.3448 0.282 0.11035 -0.097709 0.11 0.033461 0.043069 -0.087599 0.17312 -0.05903 -0.045528 0.066233 -0.14308 0.2096 0.091501 -0.024409 -0.0040675 -0.057493 -0.33841 0.017735 0.24198 -0.0046721 -0.087141 0.088646 0.0048412 -0.14934 0.14206 -0.24777 0.16893 0.27748 0.18115 0.18137 -0.28662 0.18511 -0.010106 0.044314 -0.11071 -0.1286 -0.24922 0.051593 -0.081782 0.10318 -0.30931 0.29538 -0.12962 -0.16679 0.21329 -0.073938 -0.016495 -0.040775 0.091832 0.014231 0.16178 9.135e-05 -0.25022 -0.0041227 -0.022323 -0.1662 -0.0076151 -0.36622 0.094026 0.042034 -0.050106 0.13492 -0.23209 -0.12543 0.18049 -0.044982 -0.20955 0.20618 0.30528 0.048066 0.29996 -0.003674 0.14265 -0.098787 -0.14629 -0.066967 -0.19656 0.047515 -0.10974 -0.068416 -0.11704 0.19692 0.23969 -0.096042 0.2661 -0.19593 -0.028951 -0.119 -0.049782 0.013897 0.042883 -0.080251 -0.17586 -0.025185 0.10723 0.17795 -0.0025801 -0.20554 -0.027492 -0.18546 -0.024008 -0.14818 0.023007 0.021461 0.046748 -0.10339 0.13716 -0.0095285 0.18959 0.30502 0.035947 0.26496 -0.1199 -0.035328 -0.2319 -0.21221 -0.02298 0.017325 -0.053899 0.4821 0.096408 -0.03687 -0.16423 -0.14501 -0.18933 0.26676 -0.012893 -0.25097 0.10102 0.38383 -0.033952 -0.16594 -0.014794 -0.0066149 0.10276 0.16691 -0.14017 0.081976 -0.14726 0.49897 0.08012 -0.15223 -0.019699 -0.16925 0.10864 0.052521 -0.048994 -0.086193 0.15161 0.19084 -0.18345 0.11085 0.026735 0.038289 0.19046 0.31788 0.32555 -0.17427 0.007699 0.16352 -0.088873 0.16917 0.12017 0.14628 0.031835 -0.21496 0.25811 -0.019588 0.044026 -0.09937 -0.1332 -0.45663 -0.0075286 -0.17018 -0.21436 -0.026598 -0.15404 -0.31475 -0.049886 0.033545 -0.19626 0.054908 -0.26031 0.0052103 0.13557 0.060377 0.43052 -0.26241 0.19071 -0.20354 0.12825 0.18467 -0.16886 -0.0048501 0.087404 -0.043443 0.071449 -0.1048 -0.32025 0.059685 -0.0005823 0.17811 0.11344 -0.26606 -0.06721 -0.14575 -0.071753 -0.024246 -0.14834 -0.11723 0.034287 0.084796 0.046668 0.042037 0.30846 -0.03937 -0.056834 -0.043373 -0.31294 -0.046313 -0.084912 -0.19173 -0.21806 0.15421
a -0.13268 -0.091327 0.30944 -0.12007 -0.037281 0.077526 0.042757 -0.22453 -0.12635 -0.031475 0.10491 0.11112 0.068614 -0.040908 0.067433 0.40168 0.37053 0.12776 0.20522 0.11072 -0.15569 0.27562 0.0049605 0.071662 -0.24182 0.12572 0.0084356 -0.15337 0.12794 -0.044554 -0.20446 -0.072019 -0.094069 -0.041588 -0.40114 0.13847 0.059448 0.18699 -0.17145 0.06328 -0.00084363 -0.11541 -0.095807 -0.00063169 0.23374 -0.086079 0.17827 -0.043398 0.050181 -0.27226 0.089163 -0.23653 -0.22367 -0.068739 -0.052684 -0.10826 -0.077149 -0.16282 0.28725 0.11493 -0.12161 0.018053 -0.093703 -0.076125 -0.033014 0.044829 0.11208 0.12857 0.18652 0.093566 0.10763 0.0061128 -0.019581 -0.10836 0.19074 -0.098404 0.2343 -0.19728 0.059337 0.097064 -0.10367 -0.3152 0.13148 -0.22785 -0.18103 0.062226 -0.033979 0.15937 0.2306 0.22941 -0.040251 0.069584 -0.072298 0.13483 0.099274 0.12082 -0.15084 -0.033263 -0.098758 -0.11732 0.0051614 -0.14888 0.054652 0.074288 0.12781 -0.037534 -0.25344 -0.020949 0.11225 0.24833 0.13383 -0.066655 0.0080035 0.089904 -0.12823 0.15804 -0.1614 -0.050585 -0.033714 -0.12654 0.1498 -0.17551 -0.3054 0.054291 0.16897 -0.045699 0.1631 -0.10655 -0.018906 -0.18619 -0.046639 0.014438 0.060306 -0.066852 0.088049 -0.043042 0.027808 0.19712 -0.34293 0.043886 0.10022 -0.020302 -0.008575 -0.041789 -0.00060129 0.077352 0.063917 -0.081164 0.17039 -0.26613 -0.10801 -0.17181 0.038207 0.10451 0.041597 0.0082697 0.45302 0.2943 -0.076294 0.098621 0.18452 -0.12365 0.11315 -0.10722 0.11283 0.013677 -0.080375 -0.10275 0.088197 -0.0031354 -0.23322 -0.042798 0.13004 -0.0090025 0.0042011 -0.31443 -0.073378 -0.31134 -0.22363 -0.30089 0.11403 -0.15642 0.070752 0.25431 -0.0085812 0.087917 0.33943 0.14256 -0.041789 -0.18156 0.033591 0.08135 0.043596 0.19447 -0.067623 0.044906 -0.063553 -0.13545 -0.21571 -0.027607 -0.025173 0.12093 0.06599 0.09525 0.046347 0.27719 0.15951 0.088304 -0.1512 0.09764 0.046612 -0.001863 0.10494 0.030824 -0.13196 0.35642 0.2388 -0.074047 0.22141 -0.50763 -0.23186 -0.25224 -0.19084 -0.15258 -0.16136 0.41733 0.025808 -0.023701 0.45734 -0.061163 -0.018428 0.31586 -0.061571 -0.20476 -0.00165 0.032878 0.053317 -0.2375 -0.13232 0.019379 0.059967 -0.13793 0.097222 0.026247 0.26575 -0.21769 0.010153 -0.17049 0.042819 -0.011889 -0.39663 -0.044588 0.074251 0.028702 -0.021063 -0.045011 -0.18914 0.057448 -0.33287 0.1197 0.088608 -0.0038786 0.29145 0.042313 -0.072447 0.0135 -0.33975 0.028304 0.013448 -0.073532 -0.098262 -0.028069 0.087787 -0.029272 0.20589 0.12104 0.0061703 -0.078217 -0.095388 0.14823 -0.0071607 0.081574 0.091408 -0.1765 -0.025367 -0.054947 0.12456 0.11498 -0.21029 -0.18739 0.036643 0.2262 -0.090258 -0.13422 -0.068959 -0.19926 0.0044285 0.023931 -0.11453 -0.060939
jest 0.043142 -0.19376 -0.11164 -0.19255 0.051403 0.26684 -0.41266 -0.30356 -0.17185 -0.045252 -0.071335 0.0022293 -0.067754 0.00084083 -0.036264 0.23714 0.30337 -0.31769 0.15919 0.34301 0.011744 0.13284 0.28944 -0.092605 -0.081102 0.2812 0.11458 0.024571 -0.076517 -0.40357 -0.018607 -0.092978 0.11111 0.030426 0.19691 -0.075804 0.046218 0.049423 -0.025405 -0.12959 -0.10878 -0.28954 -0.30283 -0.079906 -0.0051958 -0.37632 0.16362 -0.038035 -0.042959 0.17256 -0.041801 -0.092714 -0.24876 0.39043 -0.045793 0.086904 -0.29511 -0.14129 0.44008 0.010317 -0.26382 0.12479 0.039996 -0.30734 -0.13315 0.12643 0.10227 0.53143 0.080528 -0.062004 0.057761 -0.0022687 -0.17754 -0.27231 0.33594 0.11857 -0.33786 -0.11592 -0.10881 0.066575 -0.063092 -0.14781 0.1632 -0.0082972 -0.1352 -0.13292 0.20881 0.10082 0.46784 -0.038282 -0.14477 -0.21933 0.068921 0.23179 0.17669 -0.026248 -0.21625 0.25931 -0.16046 -0.013029 -0.075411 0.032237 -0.091046 0.13419 0.10347 -0.046404 0.1002 -0.15136 0.20543 0.055094 0.10729 -0.15502 0.14862 0.020266 -0.15297 0.053074 0.14914 0.10393 0.087645 -0.094555 -0.13787 0.25844 0.02794 -0.19541 0.24498 0.34013 0.04089 0.35681 0.30317 -0.27444 0.1841 0.38522 0.19417 -0.039143 -0.27887 0.017986 -0.074193 0.097821 0.086466 0.084296 0.1144 -0.14989 0.13358 0.22081 0.37199 0.46677 0.049689 0.094196 0.38427 -0.2035 -0.28286 -0.22655 0.13926 0.17218 -0.1865 0.019181 0.086806 0.067195 -0.078294 -0.10071 0.21997 -0.10443 -0.29777 0.023944 -0.091266 -0.056555 0.06049 -0.077608 -0.16969 0.043175 0.075195 0.15338 0.07266 0.33639 0.10318 -0.12324 -0.0061218 -0.042212 -0.11609 0.094094 0.030338 0.00036791 -0.17973 0.1305 0.054017 0.13297 -0.28456 0.12356 0.20622 -0.012143 -0.071906 -0.15691 0.16496 0.16008 0.05573 0.05017 0.090303 -0.090848 0.10075 -0.21493 0.080444 0.15834 -0.12404 -0.065818 0.035544 -0.064505 0.0076346 -0.18265 0.038468 0.08378 0.08476 0.023134 -0.11272 -0.074886 0.18984 -0.12449 -0.0014375 -0.0018413 0.092106 -0.16056 -0.21036 -0.061004 -0.034908 0.1395 -0.16426 0.38322 -0.087018 -0.046808 0.20943 -0.048602 -0.062335 0.17925 0.13347 -0.042012 0.068067 0.11973 0.13714 0.12813 -0.094212 0.33286 -0.16522 -0.29128 0.28936 0.15312 0.35305 -0.043726 0.19004 -0.012737 0.30431 0.20076 -0.1295 -0.02975 -0.1671 0.14569 0.10618 0.30963 -0.10188 -0.069032 -0.19221 0.21674 0.20861 -0.16765 0.35686 -0.0037389 -0.078409 0.10022 -0.21698 -0.17361 -0.36627 0.0092291 -0.10237 -0.33629 0.24503 -0.035062 -0.13041 0.2386 -0.13551 0.17835 0.12874 -0.07804 0.096292 -0.36274 -0.094508 -0.39442 0.017571 0.041964 -0.25676 0.079742 -0.23472 -0.22356 -0.16017 0.013074 0.038143 -0.14179 -0.45744 0.23185 0.15256 -0.10497 0.089324 -0.34083
rd 0.26894 -0.0014856 -0.30696 -0.77106 0.23319 1.1713 -0.35236 -0.11844 0.26828 -0.43883 -0.23711 1.1322 -0.55365 0.31776 0.10011 0.095402 -0.095758 0.72279 -0.08198 0.25184 0.26618 0.54073 -0.45981 -0.52281 -0.59397 -0.59858 0.30732 0.21449 1.0522 -0.030905 -0.30759 -0.261 0.15345 0.16598 -0.22746 -0.44857 -0.44658 0.58686 -0.23813 0.13178 0.37613 -0.68285 0.52407 0.067302 0.29485 -0.48569 0.62498 0.022981 0.24822 0.46865 -0.77252 0.84838 -0.90727 -0.68058 0.56773 0.38176 -0.69586 -0.19625 -0.093144 0.67967 0.93489 1.2909 -0.097304 0.21831 -0.7167 0.45503 0.40144 -0.045867 -0.18318 0.5399 -0.049653 -0.16633 1.2216 -0.045224 0.11019 -0.56143 0.24083 0.41265 -0.20911 -0.16894 0.32025 -0.14957 -0.60597 -0.22119 -0.01466 0.74077 0.87207 -0.5115 0.39023 0.54634 0.4591 -0.62539 0.64201 0.53756 -0.26292 -0.032411 0.12603 0.057944 0.40748 0.11972 -0.2063 -0.42005 -0.21182 -0.07882 -0.60536 -0.050471 0.1884 0.8627 0.19592 -0.11945 0.10138 -0.15812 -0.52213 -0.18216 0.26317 0.42096 -0.19199 -0.02906 0.23879 0.34897 0.19033 -0.41961 -1.0744 0.39628 -0.73985 -0.57471 -0.32885 -0.52271 0.75301 -0.44001 0.017118 -0.65558 0.25766 0.022258 -0.28914 -0.055149 -0.30769 0.4381 0.83781 -0.22138 0.41657 0.25384 0.3114 0.51708 0.087637 -0.21498 0.54496 -0.71163 0.16392 -0.31756 -0.14475 0.12557 0.26608 0.48065 0.29006 0.57453 -0.036902 0.68849 0.3572 -0.16095 -0.02723 -0.7573 -0.22099 -0.032431 -0.26433 -0.90641 -0.14539 -0.065935 -0.11332 -0.056118 -0.12742 0.19117 0.047458 -0.14379 0.18796 -0.027135 -0.20796 -0.56881 -0.094714 0.92926 1.0227 0.13471 0.62443 0.028327 0.98209 0.33701 -0.84861 -0.25834 -0.061067 -0.17473 0.46875 -0.43109 0.18006 0.16983 0.4687 0.29881 -0.030539 0.081572 -0.035515 -0.39109 -0.18292 0.47654 -0.06727 -0.12493 -0.077914 0.36 0.17737 0.37366 0.27199 -0.051303 0.27725 0.36422 -1.0503 0.16827 -0.025931 -0.63532 0.14713 -1.0019 0.65473 -1.043 -0.52147 -0.19544 -0.88699 -0.23009 0.20788 0.42435 0.13041 0.014396 0.075274 0.13738 0.25938 0.23484 0.0441 -0.57388 -0.33331 -1.1359 -0.87554 -0.049672 -0.55624 0.32661 -0.31515 1.2183 -0.1546 -0.62325 1.054 -1.4657 -0.1843 0.26657 0.29755 -0.20225 -0.2219 0.09626 -1.0128 -0.28595 0.60184 0.36084 -0.37391 0.038461 -0.070722 0.52564 -0.6961 0.018454 0.25642 0.28397 -0.35865 -0.88001 -0.0084527 -1.0913 -0.50809 -0.094181 -0.18713 -0.3742 0.88415 -0.69444 -1.3453 0.92053 1.7519 0.5931 0.64987 0.14249 0.17243 -0.72136 -0.4955 -0.051553 -0.25439 0.49655 0.3912 0.67742 -0.68766 -1.0354 0.1257 -0.401 0.15034 -0.0084293 -0.073133 -1.0479 -0.84262 -1.0386 -0.14171 0.20213
nie 0.21363 -0.11226 -0.21279 -0.15696 -0.27951 -0.01854 -0.15538 -0.025621 0.034319 -0.16524 -0.056869 0.25978 -0.13032 -0.017908 0.085416 0.20332 0.42319 -0.021537 -0.23727 0.32022 -0.2336 0.084881 0.074397 -0.33707 -0.26084 0.28844 0.013876 -0.076016 0.28141 0.018713 -0.20933 -0.046388 0.20702 0.096355 0.056421 0.20461 0.088312 0.22044 -0.020018 0.031544 -0.10723 0.36016 -0.054343 0.13796 0.29453 -0.26901 -0.021442 0.1048 0.0001213 -0.094526 0.098811 0.11841 -0.019994 0.046527 -0.13939 -0.131 -0.096981 -0.203 0.32277 0.30716 -0.15718 -0.39326 0.16673 -0.16546 0.083005 -0.052719 -0.018954 0.38098 -0.22517 0.18074 0.091649 -0.29721 -0.066558 -0.082963 0.22019 0.25542 0.0055729 -0.16613 0.067836 -0.23739 -0.1963 -0.16898 -0.054946 -0.17933 -0.069914 -0.23735 0.069778 0.16351 0.25119 0.11134 -0.47286 -0.095187 0.013129 0.0094846 -0.14656 -0.093582 -0.13015 -0.047949 -0.11024 0.072875 0.03722 -0.26817 0.10697 -0.10852 0.21332 -0.064447 -0.24312 -0.3564 0.099177 -0.11955 -0.032623 -0.14308 0.14485 0.021146 0.17865 0.198 0.031697 -0.085632 0.078172 0.1344 -0.033944 0.17192 0.12857 0.10048 0.13296 -0.090427 0.21096 -0.058985 0.11491 0.02261 -0.1019 0.020512 -0.043877 0.0040133 0.0024041 -0.070669 -0.16132 0.016727 -0.11368 0.1372 0.084131 -0.023253 0.12387 0.094455 0.16628 0.098164 0.012452 -0.060562 -0.099902 -0.31439 -0.14067 -0.14836 0.17023 0.29285 0.18342 0.12197 -0.12662 0.21884 -0.11032 -0.19287 0.0010472 -0.094003 0.060212 0.17781 0.12201 -0.03608 0.093407 0.098138 0.052974 -0.030329 -0.10564 0.2185 0.060056 -0.14691 0.1882 -0.039587 0.079177 -0.10659 -0.43144 0.19785 0.23181 -0.20459 -0.098847 0.052205 -0.057247 0.013073 0.28823 0.24259 -0.038705 0.047769 -0.040596 -0.1093 0.11304 0.12428 -0.2373 0.035135 -0.37093 -0.25112 0.018532 0.0076596 -0.030334 0.0034483 -0.074101 -0.075634 0.16675 0.1495 0.062714 -0.097379 -0.034894 0.11132 -0.12673 0.062095 -0.00097711 -0.0010877 0.11404 0.16378 0.13797 -0.05508 0.25622 0.056039 0.00058402 -0.11982 -0.19144 0.0090018 -0.074836 0.36919 -0.10511 -0.017181 0.30747 -0.045615 -0.019211 0.20797 0.046253 -0.23007 -0.035584 0.098123 -0.024849 0.033805 -0.22411 0.060822 0.0871 -0.15272 -0.044242 -0.045845 0.1885 0.0068794 0.0067606 0.18141 0.010497 -0.048922 -0.46976 0.14763 -0.048083 -0.026369 0.21337 0.37423 -0.16366 -0.40209 -0.035053 -0.28257 0.30735 0.033287 0.12193 -0.13621 0.024332 -0.24957 0.015513 0.093105 -0.404 -0.022139 0.19299 -0.082301 0.23196 0.060125 -0.0092659 -0.0051176 0.34834 0.14597 -0.13534 0.016693 0.043756 -0.21548 -0.26348 -0.28617 -0.014485 -0.029877 0.19428 0.11767 -0.083466 -0.099052 -0.042306 -0.060958 0.15138 0.15963 -0.20632 -0.079249 -0.1415 -0.10903 0.16463 0.15047
od 0.26015 -0.097763 -0.12625 -0.5377 -0.055727 0.139 0.33295 0.29604 -0.051816 -0.088744 0.17724 0.16233 0.08573 0.20162 -0.089568 0.50043 0.25782 -0.17896 -0.12937 0.21579 -0.18966 -0.025613 0.24496 -0.068184 0.03798 0.073335 0.078848 -0.027883 -0.16962 -0.17039 -0.12056 0.1352 0.052019 0.10858 -0.42732 0.13977 -0.18912 0.038253 0.099348 0.22668 -0.22842 0.012474 -0.3692 0.28431 0.035969 -0.3508 -0.30816 -0.14703 -3.255e-05 0.1362 -0.02879 -0.20382 0.094106 0.13053 -0.0097131 -0.0062077 -0.26529 -0.049906 0.23243 -0.22959 0.021716 -0.080913 0.097983 -0.12405 -0.036332 0.29517 -0.08015 0.060085 -0.18934 -0.22392 -0.1672 -0.18409 -0.43474 0.013686 -0.20493 0.18084 0.11816 -0.47534 0.053944 0.14745 -0.44995 -0.1011 0.10457 0.042637 -0.14655 -0.11659 -0.070247 0.34766 0.22883 -0.078308 0.19298 0.31025 -0.17499 -0.023407 0.28188 -0.1059 -0.11005 0.018935 -0.21728 -0.13968 -0.187 -0.072764 0.28394 0.3755 0.00506 -0.052322 -0.084374 0.028477 0.13336 0.016449 0.11105 -0.11282 0.26505 -0.14715 -0.15296 0.249 0.18432 0.096045 -0.17319 -0.10406 0.019396 0.10313 -0.04076 -0.1657 0.17139 -0.045877 0.061746 -0.43219 -0.10728 -0.27244 0.19018 0.23721 0.18928 -0.15524 -0.016389 -0.16742 -0.0072675 0.018657 -0.13632 0.1134 0.14074 -0.18782 -0.050368 0.015155 0.22413 0.45686 -0.049628 -0.28008 0.21659 -0.11691 -0.15138 0.10054 -0.17438 0.48992 0.097409 -0.48939 -0.31944 0.059447 0.28167 -0.13357 0.10574 -0.38607 0.062614 0.13681 -0.098522 -0.02196 0.22819 -0.049803 -0.063896 -0.30066 0.10481 0.18454 -0.22436 0.024566 -0.44702 -0.16521 -0.12514 -0.0034048 0.0078892 0.30343 0.0014691 -0.12624 0.47054 0.076677 -0.012517 0.10278 0.15416 0.34434 -0.10487 0.059536 0.22914 -0.07435 0.16399 0.1101 -0.27352 0.11558 0.1944 -0.24201 -0.076621 0.007343 0.21223 -0.055558 0.00012493 -0.1966 0.022194 -0.27073 0.047438 0.05899 -0.2706 -0.12071 0.0043045 -0.15637 -0.3169 0.040331 -0.22207 0.17713 -0.0031668 -0.1563 0.19415 -0.3502 0.13061 -0.045755 -0.16738 0.093808 0.16122 0.37693 0.066994 -0.24951 0.075295 -0.091504 0.13694 0.18539 0.11942 -0.15802 -0.13691 0.18439 -0.14172 -0.0010413 -0.044414 0.25605 0.26027 -0.073313 0.20846 -0.025761 0.18235 0.05322 -0.074242 -0.22803 0.26399 0.099741 -0.22509 0.024486 -0.19245 -0.17101 -0.21065 0.21162 -0.28716 0.053621 -0.25142 0.19592 -0.10264 0.019232 0.33777 -0.16338 0.12625 0.1661 -0.40606 -0.099649 -0.070234 -0.17737 0.080335 0.05824 0.23641 0.10563 -0.094792 0.27525 0.17708 0.27482 0.16896 0.30639 -0.13099 0.052332 -0.13868 0.10458 -0.1066 0.30066 -0.017989 -0.11196 -0.17393 -0.14002 0.2692 0.12751 -0.063953 -0.13772 -0.16069 -0.22446 0.019344 -0.31133 -0.23715 -0.0016868
o 0.28983 0.088575 -0.026891 -0.45203 -0.026619 0.21611 -0.11222 0.12359 -0.069929 0.12166 -0.15158 -0.19518 -0.13115 -0.26517 0.14111 0.16999 -0.086481 -0.16161 0.4004 0.00017923 -0.20029 -0.030045 0.048631 -0.088505 -0.068922 0.18416 0.066136 0.048303 0.1056 0.017088 -0.18925 0.17941 0.14138 -0.18728 0.3514 0.15849 -0.10154 0.38735 -0.20934 -0.28042 -0.45075 -0.046779 -0.10409 -0.10147 0.12289 -0.18045 -0.070879 0.69579 -0.20426 -0.052547 0.099316 -0.13001 -0.46075 -0.1538 -0.010515 -0.18517 -0.31611 -0.44618 0.36404 -0.0026801 -0.15486 -0.11432 -0.17842 0.0027163 -0.030503 -0.12479 0.15364 0.14432 0.0061527 0.27287 -0.12035 0.0024797 0.062526 -0.30536 -0.0035546 0.14038 0.16853 0.12299 -0.24338 0.024652 0.13013 0.045005 -0.087081 -0.023717 -0.5551 -0.07567 0.26141 -0.12438 0.18585 0.12406 -0.25003 0.14242 -0.16641 0.30851 0.036413 -0.16291 -0.4227 0.042702 0.016986 -0.076314 0.10368 -0.14097 -0.0073154 -0.0027912 -0.37003 -0.10226 0.16151 -0.36653 0.15028 -0.11749 0.15027 0.3732 -0.09587 -0.28609 0.074279 0.015824 0.10984 0.19645 -0.069596 0.30536 0.087106 0.0019118 -0.10202 -0.23242 0.23178 -0.21432 0.26852 -0.067149 0.41972 0.16621 -0.040824 -0.057427 -0.11568 -0.5312 -0.11397 -0.08512 -0.027908 0.030793 0.081212 -0.070566 0.11287 0.20165 -0.18051 0.029411 0.0050808 0.33473 0.18605 0.056582 0.22862 0.16106 -0.24017 -0.28312 0.34228 -0.076732 0.12667 0.16094 -0.16172 -0.031374 -0.019303 0.20343 0.076792 -0.16101 -0.15113 -0.086522 0.38668 0.11477 0.085827 -0.19669 -0.058356 -0.20446 0.34213 0.23356 -0.3165 0.028229 -0.21752 0.031861 0.14427 -0.18693 -0.04684 0.45034 0.094285 0.20937 -0.27287 -0.30945 -0.19173 0.15366 0.3186 0.093968 -0.14353 -0.22979 0.27528 -0.33984 -0.090689 0.49856 -0.17151 0.015099 -0.14876 -0.2255 -0.2178 0.11484 0.11692 -0.053532 0.38623 -0.46916 -0.15706 0.23955 0.022217 -0.24843 0.058044 0.0907 0.06118 0.02092 0.094565 -6.4753e-05 -0.06443 0.42107 0.13007 -0.15828 0.13901 -0.16653 -0.024383 -0.21361 -0.24323 0.033953 0.46623 0.27635 0.095516 0.017986 -0.081834 -0.30125 -0.23873 0.30501 -0.093255 -0.40909 0.047857 0.01319 0.21172 0.17513 -0.21777 -0.060545 -0.1102 -0.20666 -0.21738 0.058004 0.10244 -0.084378 0.16201 -0.30982 0.31852 -0.10091 -0.084712 0.05056 0.026099 0.42399 0.028018 0.12889 -0.020183 -0.080635 -0.29261 0.1434 0.087513 -0.020071 0.20768 -0.13571 0.41564 0.31384 -0.28128 -0.13055 -0.13408 0.129 0.078296 -0.098545 -0.022925 0.20604 -0.16027 0.32348 0.40873 0.065744 0.15028 0.056902 0.077384 0.11561 0.23119 -0.27957 -0.090212 -0.12812 0.030479 0.38 0.088359 0.0017154 0.0087914 0.31945 0.1814 -0.12228 -0.36997 -0.45974 0.067613 -0.15607 -0.12962 0.049937
to 0.041779 -0.041311 -0.037431 -0.19814 0.20409 0.23906 -0.14622 -0.10433 -0.019139 -0.10277 -0.07988 0.098647 -0.043413 -0.044821 0.01962 0.27282 0.3163 0.060959 -0.0049111 -0.060093 -0.1671 0.25038 -0.087196 -0.23402 -0.238 0.19964 0.062083 -0.15943 0.061772 -0.18463 0.028121 0.060488 0.035601 -0.11784 0.069417 0.038956 0.070797 0.17321 0.15127 -0.14191 0.14379 0.24325 0.016304 0.02973 0.12324 0.11875 0.060408 0.11811 0.0087164 -0.18269 -0.065887 -0.20152 -0.21483 -0.019175 -0.092123 -0.058537 -0.11855 -0.11891 0.60874 0.22097 -0.16804 -0.14587 -0.033931 -0.1243 -0.14851 0.10448 0.024334 0.17662 -0.040422 0.043469 0.060683 -0.11811 -0.22056 -0.24963 0.17934 0.081561 0.002119 -0.19241 -0.017901 0.088745 -0.060649 -0.18467 0.13311 0.029037 -0.072322 0.068645 0.0051041 0.19736 0.22306 0.27765 -0.16495 0.15717 -0.034327 0.089355 0.080868 0.19251 -0.14223 0.19271 -0.24881 -0.046164 0.074814 -0.016435 0.035598 -0.037847 0.34899 -0.12271 -0.096814 -0.48299 0.2315 0.17903 0.066591 -0.12794 0.041817 0.16316 0.0945 0.19186 0.094249 -0.080449 0.10339 0.0011166 0.015488 0.010165 -0.25179 0.26125 0.23504 -0.0061107 0.12984 0.14788 0.067044 -0.048349 0.052554 0.1127 0.12457 0.24935 -0.15654 -0.065154 0.019487 0.36709 0.046816 0.060957 -0.012932 -0.035959 -0.11905 0.32889 0.11665 0.045417 0.11407 -0.09725 0.17156 -0.40882 -0.083657 -0.16577 0.040597 0.19547 0.095462 0.052437 0.073771 0.34934 -0.37608 -0.18412 0.16062 -0.17874 -0.064651 0.090728 0.13894 0.074302 -0.036801 -0.12365 -0.13351 0.030766 0.014306 0.029408 0.11288 -0.14071 0.038035 0.20597 0.1988 -0.29935 -0.10784 0.16562 0.094559 -0.24708 -0.052486 -0.02311 -0.033612 0.1409 0.33067 -0.060527 0.095464 -0.018871 -0.044892 -0.16145 0.20246 0.21869 -0.23702 0.095443 -0.16438 -0.082631 0.11858 0.12893 0.26761 -0.022128 0.026922 0.0063819 0.080209 0.33235 -0.010869 -0.082752 -0.063621 -0.021478 0.26787 -0.20846 -0.16792 0.094816 0.020374 0.234 0.17672 -0.031729 -0.030702 -0.1869 0.025827 -0.050877 0.012448 0.0067406 -0.19491 0.20504 -0.0088957 -0.052266 0.19899 0.033332 -0.1658 0.026189 0.056681 -0.40163 0.013409 0.13513 0.12237 0.12014 -0.17797 0.083638 -0.044477 -0.37939 0.089829 0.20349 0.25939 -0.15215 0.049258 -0.043314 0.19064 0.0099918 -0.19019 -0.13588 -0.3024 -0.049254 0.0092896 0.28042 0.017145 -0.07206 -0.043182 0.02946 0.35954 0.025542 0.17246 -0.15057 -0.023428 0.10651 -0.1221 -0.0064772 0.058672 0.047424 0.086189 -0.12985 0.19861 -0.048769 -0.054455 -0.077841 0.09514 0.032534 0.0066169 -0.038721 -0.00076918 0.060859 0.090313 -0.28285 0.1507 -0.11486 0.071545 0.079523 -0.01018 -0.095007 -0.026062 0.17235 0.09326 0.024299 -0.32844 -0.11764 -0.0081328 0.092028 -0.01701 -0.037561
# 0.23462 0.22162 0.049802 -0.77868 0.3949 0.31159 0.23989 -0.3172 0.28903 -0.098343 0.20729 0.277 -0.25799 -0.099531 0.025768 0.5969 0.30987 -0.14581 -0.21489 -0.14865 0.48954 0.16712 -0.43692 -0.21794 -0.25761 0.14157 0.21723 0.025251 -0.01028 -0.12354 -0.14962 0.39082 -0.26389 -0.079428 -0.048509 0.037556 -0.24551 0.090713 0.0097563 0.21869 0.17356 0.0081598 0.45689 -0.34847 -0.11041 -0.21824 -0.087593 0.171 -0.52089 -0.17557 -0.17977 -0.23295 -0.042326 0.21405 0.043717 -0.032047 -0.076352 -0.13669 0.27131 0.076224 0.22803 -0.07001 -0.038845 -0.22205 -0.22849 -0.33177 0.55544 0.012799 -0.25422 -0.17634 0.16436 -0.040349 0.083237 -0.30872 0.35638 -0.035657 -0.13609 0.13013 0.17508 0.093749 -0.11069 0.41609 -0.22712 0.082808 0.084315 0.19634 -0.16421 -0.16542 0.16629 0.16235 -0.21404 -0.070381 -0.30032 0.031909 -0.073139 0.046755 0.27252 0.17328 -0.037633 0.022275 0.3312 -0.099048 -0.18356 0.13191 0.36949 -0.13385 -0.0096904 -0.55156 0.11778 -0.082773 -0.028476 -0.36396 -0.080465 0.15396 0.17516 0.26339 -0.27008 -0.32341 -0.54439 0.064581 -0.094686 -0.092664 -0.10234 0.19848 -0.11466 0.12556 0.19115 0.20494 0.25525 0.024035 0.23401 0.19943 0.37365 0.17182 -0.45736 -0.031672 -0.22858 -0.039894 -0.02008 -0.20222 0.075969 -0.11025 0.0011688 0.78405 -0.080727 0.21774 -0.092607 -0.18956 0.25109 -0.060107 -0.084754 -0.2516 -0.031545 -0.043152 0.052665 -0.094511 -0.18625 0.30572 -0.48146 0.059002 -0.19052 -0.39904 0.096515 0.2174 0.012612 0.045428 -0.14274 0.054771 0.014055 0.057669 0.28166 -0.018463 0.10727 -0.15893 0.21191 -0.45214 0.30519 -0.48025 0.55674 0.044831 0.24647 -0.64495 -0.14995 0.028625 0.12789 -0.088031 -0.19531 -0.26204 -0.034492 0.11981 0.055794 0.0021526 0.029217 -0.073336 -0.47284 0.0060268 -0.14729 -0.15919 0.31733 -0.0042633 0.11039 -0.22598 -0.12487 0.41026 -0.0063621 0.013273 0.43078 0.67443 0.40151 -0.29584 -0.23929 0.022743 0.10788 0.10407 0.1898 0.25857 0.034096 0.039594 0.31583 -0.47217 -0.44918 0.061491 -0.29008 0.13985 -0.28827 -0.025892 0.17242 0.06012 0.28929 -0.0089458 -0.29642 0.19988 -0.09599 -0.04058 0.058906 0.14481 0.1434 0.34325 -0.042738 0.34823 -0.20769 -0.25746 -0.0062691 -0.0052271 0.44172 0.09618 0.039896 -0.038725 0.2207 -0.20248 -0.13319 -0.36416 -0.062901 -0.33789 0.49122 0.32188 -0.17031 0.11599 -0.23554 0.3202 0.091068 0.057802 0.22681 -0.16334 -0.2152 -0.10419 0.16292 0.087218 0.22012 -0.065802 -0.46124 0.096348 0.58245 -0.089078 -0.0065155 0.15744 0.32005 -0.072661 0.16951 -0.17694 0.29776 -0.27446 0.38068 -0.24589 0.20477 0.0088016 0.2169 0.29831 0.14863 0.067528 0.2258 0.43857 0.094968 -0.024837 0.0061711 0.040849 0.15239 0.032432 -0.089681 0.18451
przez -0.13281 -0.25496 0.16666 -0.5353 0.23908 0.22589 -0.065158 -0.12404 0.2079 -0.0012349 -0.051107 0.13619 0.021438 0.022436 -0.17604 0.097175 0.22256 -0.28615 0.1955 0.38411 -0.10345 0.28859 0.24256 -0.45069 -0.091328 0.019163 0.070608 0.26983 0.026311 -0.058579 -0.1845 0.0027778 0.026729 0.01813 0.14667 0.43991 -0.054732 0.28555 -0.19642 -0.17701 -0.02269 -0.084349 -0.45882 0.19879 0.39756 -0.50242 0.31202 0.0045349 -0.10376 -0.42097 -0.02282 -0.17713 0.11441 -0.13054 -0.036501 -0.21427 0.04234 0.029564 0.23885 0.31465 0.095359 0.045811 -0.39851 0.055951 -0.11839 0.098497 0.085683 0.072047 0.068215 0.089408 -0.076338 -0.041145 -0.22884 -0.17972 0.1721 0.15763 0.24123 -0.22464 0.086917 0.23432 0.16486 -0.10037 0.2302 0.33074 -0.41972 -0.13155 -0.11367 0.12223 0.14046 -0.04039 -0.33866 -0.040993 0.17791 -0.033912 0.06371 -0.50389 -0.16332 -0.017332 -0.18671 -0.039181 -0.089866 -0.5711 -0.038137 -0.11213 0.23019 -0.16171 -0.31214 0.28424 0.045391 0.011838 0.2233 0.019601 -0.34798 0.15589 -0.46902 0.020123 -0.048377 0.039487 -0.16619 0.12582 0.24561 -0.10561 -0.0096769 -0.25894 0.042311 0.42427 -0.099729 0.20862 -0.11045 -0.21704 0.033285 -0.097167 -0.26311 0.111 0.13717 -0.029676 0.14631 0.10048 -0.056446 -0.61102 -0.064476 -0.1471 -0.10829 0.10766 -0.069578 0.073189 0.21776 0.0037144 0.13457 -0.25069 -0.28387 -0.25345 -0.19542 0.31613 0.058608 -0.10248 -0.33905 0.168 -0.11676 -0.08777 0.23876 0.004327 -0.0085965 0.24971 -0.1061 -0.16798 0.088527 0.05091 0.072448 0.03345 -0.24641 -0.040215 -0.056591 -0.058591 -0.38154 0.153 -0.14117 -0.30413 -0.0090962 0.16631 0.094315 -0.0076141 0.16268 0.11054 0.36831 -0.026301 -0.23335 0.066801 -0.018668 -0.10525 -0.018668 -0.24401 0.13367 0.17215 -0.1426 0.15218 0.19412 -0.12017 -0.054584 -0.0089737 -0.29759 0.1931 -0.25942 -0.14851 -0.027581 -0.014043 -0.18841 0.051045 -0.16702 0.015809 -0.017517 0.27072 -0.1681 -0.1592 0.23464 0.10369 0.41863 0.0031842 0.042876 0.038015 0.44951 -0.079906 0.15054 0.11554 -0.14548 0.027138 0.22894 -0.1337 0.0020818 0.012733 0.15561 0.17728 -0.11967 0.054167 -0.16899 -0.10588 -0.013074 0.028074 -0.16035 -0.056774 0.2248 -0.47223 -0.0045057 0.18066 0.074882 0.12698 -0.13925 -0.2701 0.39954 0.01237 0.14803 -0.058156 -0.27825 0.286 0.091248 0.3298 -0.059903 0.22082 -0.16106 -0.023975 0.059019 -0.36297 0.32964 -0.024845 0.13143 -0.12248 -0.13012 -0.13035 0.071132 -0.30706 0.11945 -0.15457 0.11958 0.06325 0.11148 0.39442 0.19462 0.05801 -0.10972 0.0076185 -0.046181 0.025054 0.082139 0.034795 0.16315 -0.10229 -0.21737 0.11295 -0.30986 -0.35057 -0.038207 -0.07312 0.1192 -0.13853 -0.43236 0.13668 -0.3146 -0.035275 -0.0089967 0.048434
left 0.15851 -0.073774 0.35897 -1.1794 0.20456 0.58154 0.91433 -0.069071 0.38052 -0.21098 -0.6494 0.58897 -0.32021 0.68551 -0.19791 0.13736 0.58694 0.099384 0.63156 0.13149 -0.0017987 0.267 -0.20638 -0.31641 -0.14848 -0.051952 0.22625 -0.083844 0.3612 0.34033 -0.20065 0.44643 -0.070611 -0.059403 -0.12945 0.20907 -0.55673 0.38512 -0.19938 0.46651 0.55354 -0.22052 0.063779 0.25762 0.79384 0.12539 0.32422 0.51043 0.37932 0.25124 0.023471 1.06 -0.36258 -0.091613 0.28481 -0.39489 0.040445 -0.56493 0.36129 -0.088386 0.59517 0.6004 -0.056163 -0.28227 -0.012037 0.058569 1.1285 -0.2352 -0.63339 -0.064178 0.23643 0.34146 0.62632 -0.68015 0.15559 -0.35165 -0.20381 0.57192 0.21057 -0.79723 -1.2215 0.33689 -0.011459 -0.67101 0.43853 0.8487 -0.27623 -0.11827 0.18239 0.099443 0.21027 0.12519 0.72374 0.5375 -0.12562 -0.61453 -0.3435 -0.57794 0.65996 -0.3835 -0.81837 -1.034 -0.68167 -0.34135 -0.62644 0.31265 0.5259 0.16778 -0.34346 -0.23357 -0.57946 -0.67185 -0.8555 -0.15514 0.38489 0.39836 -0.46632 0.32505 -0.50436 -0.193 -0.49251 0.06917 -0.22981 0.32784 -0.60962 -0.56848 0.531 -0.55153 0.49245 0.068972 0.20622 0.031939 -0.015432 0.36152 -1.1006 0.10525 -0.69323 0.52748 0.77213 -0.53938 0.34717 -0.15145 0.2624 0.85237 0.60948 1.0658 0.41542 -0.80961 0.11351 -0.49879 -0.11303 -1.0589 0.12264 0.45288 -0.34666 0.22318 -0.58627 0.66642 0.52111 -0.135 -1.2676 -0.48448 0.084373 -0.33449 0.20061 -1.0533 -0.42717 0.3354 -0.71597 0.48628 -0.10376 0.04882 0.23378 0.14655 -0.28532 -0.55707 -0.093969 -0.13917 1.032 -0.35233 -0.29336 -0.12117 0.50313 0.22133 0.64242 0.05373 -0.80792 0.041056 0.063095 1.2956 0.22681 -0.18729 0.28716 0.17443 0.43185 0.0009038 -0.038704 -0.20097 -0.78668 0.40764 0.00027804 0.48138 0.57134 0.0934 -0.1373 0.073817 -0.10216 0.20694 0.61328 0.26928 -0.82844 -0.54679 0.60194 0.76345 0.14386 -0.12004 0.11798 -0.46061 1.1699 -0.69224 -0.76971 0.078554 0.19959 -0.17287 0.47023 0.069804 0.74337 0.4876 0.90136 -0.1446 0.19655 0.86634 -0.08794 -0.67563 0.33966 0.64648 0.51252 -0.46918 0.031633 0.50825 -0.067551 -0.25271 -0.1882 0.29453 0.50414 -0.86193 -0.60985 0.073524 0.30226 -0.1888 -0.63387 -0.051892 -0.31759 -0.11675 1.1125 0.4976 0.2079 0.15386 -0.10555 0.079586 0.12979 -0.077189 0.37923 0.65899 -0.95966 -0.78222 0.76554 -0.063813 -0.51337 -0.44168 -0.8102 -0.90604 0.32715 -0.1331 -0.39789 0.75127 1.1922 0.46045 0.090338 -0.076907 -0.31671 0.60439 0.17402 0.28548 -0.37295 0.39643 0.27726 0.25944 -0.44167 -0.8739 -0.11502 0.074557 0.68139 0.45552 -0.0030807 -0.54464 -0.69454 0.1534 0.17972 -0.31651
po -0.092102 0.19619 0.24402 -0.078765 0.030475 0.31043 -0.23004 -0.016732 -0.1419 0.043394 -0.35979 0.067445 -0.057438 0.099971 0.053568 0.094679 0.072411 -0.20522 -0.0090942 0.02404 0.097021 0.21882 0.12945 -0.23442 0.089928 0.32827 0.22996 0.065028 0.12344 -0.043885 -0.16788 0.23991 -0.19582 0.042272 0.091603 0.16528 -0.021741 0.076917 -0.32308 0.19764 -0.21063 0.092018 0.15739 -0.066054 0.26533 -0.5551 0.22859 0.087976 0.1318 -0.060629 0.12158 -0.17344 -0.28942 -0.031913 0.20233 -0.28048 -0.12596 -0.18873 0.12787 0.27803 0.022196 0.087437 -0.20282 -0.19748 0.12561 0.024227 0.38846 0.028886 -0.13849 -0.12479 0.06479 0.23877 -0.13525 -0.094982 0.085486 0.10731 0.39005 -0.27698 -0.0049459 -0.13223 -0.20309 -0.061759 0.34349 -0.22603 0.0037118 -0.11764 0.087944 -0.039907 -0.005971 0.089579 -0.1914 0.0019941 -0.32116 -0.32572 -0.17952 -0.2395 -0.29291 0.25738 -0.18761 -0.14278 0.19227 -0.14876 -0.0037649 0.43455 0.27268 -0.42633 -0.23003 -0.084591 0.13839 -0.27361 -0.038686 0.30473 -0.13193 -0.25814 -0.16745 0.21417 -0.047658 0.12923 -0.08285 0.31739 0.17569 -0.084175 0.52375 0.035998 0.095757 -0.0045014 0.17688 -0.040715 0.35741 -0.037439 0.29092 -0.09653 -0.234 -0.095023 0.17422 -0.22446 0.1593 0.29005 -0.21706 -0.2518 0.0048654 0.14108 0.13813 -0.046316 0.25526 -8.5577e-05 -0.090538 0.018649 0.070788 0.083587 -0.043274 -0.0076725 -0.074281 0.14868 -0.044145 -0.040072 -0.10064 0.060862 -0.08434 -0.083295 -0.0081699 0.022717 0.24219 -0.30179 -0.18198 0.26022 0.23043 0.059332 0.017385 -0.12924 0.20949 0.028888 -0.077975 0.082438 -0.27401 0.038241 0.19299 -0.18722 0.069144 0.014679 -0.22706 -0.16369 -0.16231 0.010173 0.12422 -0.0069711 0.56614 0.14205 -0.25962 0.070018 0.055404 -0.096027 -0.20376 0.23882 -0.056249 0.088668 0.020364 -0.11581 0.11042 -0.090082 0.22321 0.1499 0.16836 -0.097143 0.23346 0.053148 -0.071995 -0.19754 -0.23582 0.22951 0.10061 0.019119 -0.33142 -0.22178 -0.0010806 0.36716 0.26585 -0.14541 0.2044 -0.14192 0.12887 0.17937 -0.13319 -0.047996 0.10151 0.26572 -0.032146 0.1609 0.2593 -0.060188 0.072247 0.16007 0.20846 -0.19245 -0.42749 0.27363 -0.071186 0.056784 -0.25313 0.17951 0.23248 -0.23123 0.010553 0.25194 0.30716 0.21528 -0.33134 -0.20826 0.10521 0.024452 -0.21945 0.37193 0.17082 -0.11784 0.015792 -0.12138 -0.013309 0.34424 -0.007217 -0.1514 0.13727 -0.1105 0.27997 -0.01614 -0.0034621 -0.29363 -0.065995 -0.20258 -0.41498 -0.12228 -0.0049587 -0.29954 0.15523 0.23422 -0.0017497 0.13931 -0.011622 0.11394 0.04865 0.27281 -0.069849 -0.046919 0.034838 -0.023573 -0.2959 -0.14739 0.03815 -0.020185 -0.083178 -0.003573 0.16506 0.0097748 0.10064 0.094976 -0.22192 -0.27309 -0.24916 0.00065592 -0.17571 0.23538
score -0.33079 0.070601 0.65557 -0.50137 0.25488 1.6943 -0.81037 -0.41413 0.55364 -0.67786 -0.24988 1.0713 -0.43594 -0.0051812 -0.13895 0.41481 -0.3505 1.4645 0.0049238 -0.045004 0.42886 0.31507 -0.68647 -0.33061 -0.3689 -0.17704 -0.23323 -0.11191 0.85768 0.14905 0.14014 0.16095 0.2129 0.16422 0.73295 0.61372 -0.78318 0.44971 0.67965 -0.050582 -0.381 0.33897 -0.01755 0.46653 0.39654 0.24391 1.0312 0.26953 0.6249 0.20931 -0.39995 0.22398 -0.43508 -0.70684 0.10002 0.23367 -0.12979 -0.34692 1.2081 0.8575 1.0637 1.9461 0.064785 0.093106 0.362 0.74904 0.98257 -0.47403 -0.14356 0.24204 0.10878 -0.31626 0.48234 0.21001 0.23835 0.44982 0.77954 1.0922 -0.05195 -0.65349 0.11974 -0.1213 0.10618 -0.27975 -0.01895 0.71952 0.56028 -0.55599 0.66976 -0.10667 0.19882 -0.10094 0.015007 -0.1856 0.40273 -0.046181 0.44033 -0.24281 0.048111 -0.025949 -0.99195 -0.23704 -0.092242 -0.40301 -0.21582 -0.11763 -0.1982 0.81551 0.50886 -0.47155 -0.52115 -0.0045878 -0.01555 -0.83102 0.18605 -0.0081039 0.1039 -0.20516 0.13172 0.43378 -0.15553 -0.00032414 -0.48155 0.94407 -0.13666 -0.71707 0.29586 0.15177 0.71538 0.25106 0.12087 -0.31386 0.61468 0.29966 -0.77487 -1.1083 -0.53952 0.20088 0.6617 -0.85147 0.35905 -0.067391 0.24302 1.3377 -0.99914 -0.01132 1.1944 -1.0718 -0.24562 0.11865 -0.46971 0.031767 0.041344 -0.23695 -0.27655 0.29905 -1.1288 0.58124 1.2269 -0.46203 0.017618 -0.14064 -0.085743 -0.25131 -0.085215 -1.6208 -0.16974 0.11766 -0.049337 -0.18419 -0.89854 -0.36156 0.78019 0.5844 -0.28813 0.46704 -0.632 -0.22658 0.47442 0.080654 1.1074 0.24742 -0.007139 -0.18651 0.70235 0.1386 -0.22358 0.099348 0.65182 0.54078 0.62841 -0.062635 0.46137 0.34466 0.21301 -0.91779 -0.64563 0.2813 -0.31965 0.12644 0.35405 -0.0087878 0.0075354 -0.060009 -0.51016 0.35891 0.71523 1.0993 0.54353 0.12586 0.53565 -0.18081 -0.61834 0.14231 0.013272 -0.010245 0.20841 -0.32589 0.36422 -0.76662 -0.011007 0.48639 -0.11192 -0.42685 0.039867 0.061886 -0.046606 0.9855 -0.030354 0.35976 0.073151 0.28907 0.038069 -0.78034 0.032293 -0.50639 -0.9669 0.52562 -0.61549 -0.49858 -0.031197 0.67678 0.051929 -0.17486 0.5773 -1.2956 -0.34483 0.34413 0.056047 0.42206 -0.43575 0.56513 -1.2931 0.23886 -0.053088 0.57995 -0.091228 0.49732 -0.36997 -0.24316 -0.11698 -0.024568 0.34795 0.46492 0.72924 -1.053 0.12442 -1.1607 -0.61176 0.83539 -0.09317 -0.79595 1.1562 0.0035392 -1.0777 0.42325 1.5772 0.90629 1.0687 0.25095 -0.51708 -0.79828 -0.63983 -0.1375 0.0029836 0.46149 0.6396 0.60104 -1.1502 -1.5129 0.44615 0.49794 0.61741 0.50716 -0.72452 -0.60053 -1.4007 -0.59474 -0.35129 0.1618
jako 0.15593 -0.11051 -0.0069645 -0.39054 0.26423 0.25169 -0.098558 0.14924 0.19996 0.43666 -0.064478 0.37776 0.01732 0.17068 -0.16179 0.25092 0.14786 -0.0015235 0.082577 0.043622 -0.077479 0.52904 0.15455 -0.044454 0.15827 0.16856 -0.076594 -0.021276 -0.022643 -0.4012 -0.15702 0.18777 0.14093 -0.21775 0.018079 -0.25828 0.22065 0.096508 -0.070165 0.28177 0.31019 -0.24367 -0.18228 -0.32053 0.19807 -0.17754 0.43903 0.1758 -0.0716 0.0097208 -0.11586 -0.073654 -0.23505 -0.084814 0.013808 -0.0068882 -0.38149 2.5382e-05 0.27896 0.14456 0.028729 -0.011814 0.14057 0.10727 -0.033208 -0.11022 0.20366 -0.12037 0.16938 -0.029143 -0.073897 0.033392 -0.038423 -0.056635 -0.056001 -0.18308 0.094479 -0.17074 -0.41283 0.18772 -0.0057316 -0.18221 0.21649 -0.063428 0.16108 -0.22704 -0.2443 0.32731 0.47562 -0.15397 -0.18392 0.13577 -0.12556 -0.00020852 0.03972 -0.13671 0.042315 0.32755 -0.04147 0.1252 0.17259 0.031921 -0.078152 0.2308 0.30504 0.00083591 -0.20982 0.17654 -0.23029 -0.17807 0.26708 0.046001 0.040593 -0.2185 0.41829 0.28233 0.20535 -0.098137 -0.058825 -0.1452 0.13208 0.33292 0.10398 0.02646 0.13773 0.26182 0.27652 -0.023091 -0.22238 0.002581 0.33666 -0.010093 -0.18785 0.2321 0.23424 0.087623 -0.36174 0.0114 -0.046437 -0.29106 0.027897 0.25609 -0.02422 0.0081686 -0.10943 -0.013839 0.34358 -0.18862 0.17175 -0.33537 -0.13083 -0.11216 -0.063058 0.64942 0.091953 -0.072342 0.056823 0.27265 -0.21541 -0.1354 -0.1377 -0.15876 0.062147 0.099692 0.051031 -0.25181 -0.083575 0.037387 -0.018729 -0.052743 0.19194 0.23747 -0.14802 -0.13665 -0.10725 -0.16682 0.06265 -0.11907 -0.015425 -0.054255 0.27459 -0.2641 -0.0043015 -0.05393 0.27469 0.18878 0.31466 -0.14231 -0.095647 0.11271 -0.30966 -0.39229 -0.17228 0.055621 0.08461 0.20192 0.10173 -0.16318 -0.19671 -0.14105 0.054612 -0.18825 -0.11413 -0.055507 -0.019414 0.056942 0.098216 0.035256 -0.12157 0.042658 0.35361 -0.16336 0.22956 0.47345 -0.22982 0.20297 0.11367 -0.022354 0.24187 -0.065526 -0.0022495 0.2573 0.013779 0.16364 -0.12165 0.18406 -0.27104 0.029403 0.16244 0.0163 -0.12429 0.01645 0.23289 -0.21305 -0.17605 -0.047236 -0.016669 0.18731 -0.059837 0.20548 -0.072893 -0.12214 -0.062954 0.31585 0.2074 -0.29292 -0.28454 -0.14015 0.19509 0.062757 -0.10757 -0.074956 -0.40713 -0.1163 0.047199 0.17589 -0.20907 -0.16807 -0.48593 0.032956 -0.29745 -0.23834 -0.047916 -0.16126 -0.16074 0.18447 -0.0071152 -0.072094 0.1804 -0.39029 0.27809 -0.30998 -0.34632 -0.31837 -0.24157 0.041112 0.066846 -0.14841 0.31244 -0.12137 0.56742 0.14679 -0.18138 -0.19426 0.20568 0.2044 0.25098 0.19344 -0.065507 0.10168 -0.032518 -0.21144 0.065672 -0.034801 -0.21931 0.016554 0.1 -0.032953 0.10989 0.063242
oraz -0.13269 -0.022507 -0.049487 -0.46353 -0.10292 0.10216 0.088695 -0.076186 -0.18774 0.065297 0.097167 -0.024255 0.075944 -0.018758 -0.30562 0.37425 0.039976 -0.22423 0.18891 0.029454 -0.094498 0.22192 -0.10194 -0.16462 -0.092512 0.053572 0.051124 -0.0064369 -0.11949 0.019361 -0.049845 -0.11758 -0.0051371 0.044262 0.10162 0.15156 0.17376 0.095085 -0.13629 0.12407 -0.10504 -0.17295 -0.089974 -0.16479 0.31167 -0.25085 0.071773 -0.027471 0.040527 -0.1582 0.087318 -0.11097 0.10791 -0.0094503 -0.014762 0.1054 -0.07786 -0.014225 0.17547 0.16188 0.22032 0.17958 0.0018347 -0.013201 -0.15236 0.0166 0.092279 0.11848 -0.057596 0.072481 -0.079292 0.012836 -0.20364 0.10988 0.13341 -0.19531 0.26307 -0.02286 -0.20805 0.056147 0.026041 -0.089769 0.19719 -0.11139 -0.14046 -0.018842 0.16573 0.2197 0.024556 -0.040618 0.048406 0.062447 -0.18369 0.14228 0.052542 0.11423 -0.14457 0.13637 -0.045658 -0.27354 0.060198 0.012083 0.14049 0.14712 -0.092519 -0.12529 -0.13642 0.10281 0.18063 -0.058905 0.058111 -0.15648 -0.052372 0.11791 0.17421 0.11394 -0.080461 0.17098 0.084286 -0.10465 -0.136 0.091114 -0.19445 -0.30569 -0.015841 0.16175 -0.041789 -0.126 -0.046433 -0.007994 0.221 0.010381 0.070379 0.0080182 0.029978 0.085586 -0.025096 0.23475 -0.021552 -0.12269 0.24751 -0.10004 0.18744 0.21558 0.086651 0.22552 0.1007 0.19736 -0.038221 0.051929 -0.31868 -0.093863 0.14721 0.03012 0.074058 -0.11528 0.096692 0.32683 0.079247 -0.078886 0.020965 -0.15979 -0.019414 -0.14307 0.092103 -0.037547 -0.12737 0.018055 0.22437 -0.10623 0.016079 0.073722 0.021692 0.060802 -0.24881 -0.36489 0.1878 -0.075609 0.1064 0.124 -0.11259 -0.081008 0.018458 0.12242 0.20911 0.29113 0.15586 0.45128 -0.24096 -0.013649 0.048766 0.037474 -0.058803 0.074619 0.085987 -0.055361 0.038421 -0.018311 -0.12561 0.050739 -0.037784 0.093915 -0.042723 -0.048887 0.097698 0.14958 0.083932 0.027186 -0.15889 0.025046 -0.039105 0.17094 0.05547 -0.10653 0.058922 0.40357 0.034205 -0.073831 -0.019207 -0.15836 -0.10767 -0.077648 -0.045847 0.14169 0.04796 -0.070855 -0.031427 -0.12053 0.046722 -0.19043 0.030485 0.25522 0.094435 0.035624 -0.022454 0.022227 0.010287 -0.0015312 -0.2803 0.090887 0.13276 -0.19604 -0.12412 0.047931 -0.073081 -0.077386 0.092342 -0.10128 0.38793 0.14384 -0.23288 -0.12888 -0.070421 -0.0054615 0.22825 0.049545 -0.20917 0.036893 -0.097142 -0.086508 -0.0226 0.034069 0.24983 -0.25838 0.016557 0.088253 -0.066911 0.13878 -0.042478 0.19329 -0.19669 -0.22549 0.18908 -0.19846 -0.08914 0.042013 0.063475 -0.15609 0.098433 0.16908 0.16018 0.033067 0.11421 -0.21071 -0.14096 -0.073878 0.042035 0.13949 -0.23134 -0.098474 -0.11442 -0.10887 -0.10757 -0.2894 -0.26399 -0.059096 -0.1328 -0.11647 -0.13119 -0.07173
" 0.1727 -0.10372 0.12512 -0.38168 0.23584 -0.20663 -0.06132 -0.21225 0.031654 -0.32749 0.093579 0.18054 0.1196 0.15995 -0.31982 0.46211 -0.20161 -0.045545 -0.038986 0.23541 0.43517 0.093395 -0.31267 -0.061814 -0.52681 -0.020691 -0.11814 0.29355 0.056371 0.32498 -0.48544 -0.48034 -0.035114 -0.012112 -0.20134 0.14789 -0.15805 0.35943 0.14946 0.18714 0.1682 -0.17893 0.024558 -0.38918 0.047106 -0.32011 0.17025 0.32852 -0.11295 0.039438 0.13956 -0.036685 0.34792 0.077167 0.043477 -0.45084 -0.11722 -0.1769 -0.19761 0.077814 0.36088 -0.27813 0.31257 -0.27797 -0.35649 0.020776 0.37605 -0.187 0.033151 0.092111 0.12261 0.11629 0.0031912 0.050291 0.32509 0.2399 -0.004418 -0.25384 -0.029903 0.26081 0.23938 -0.019016 0.10799 -0.18252 0.0090701 -0.26916 -0.52472 -0.015558 0.12392 0.35941 0.28591 -0.33921 -0.20833 0.079753 0.07475 0.053647 -0.10736 -0.3231 0.019585 0.29247 0.36691 -0.2748 0.20874 -0.0070423 -0.098304 -0.27419 -0.24856 -0.31722 0.042466 -0.067628 -0.22384 -0.03176 -0.058627 -0.48259 0.14274 0.019587 -0.076768 0.0032254 0.022653 0.1716 -0.078514 0.23898 -0.010791 0.16589 0.17671 0.10526 0.16617 0.16245 -0.10768 0.06111 0.019423 0.44647 0.2434 -0.15657 0.041571 -0.11259 0.21224 0.1229 -0.025145 0.1907 0.18295 0.047363 -0.17196 0.060227 -0.13826 0.032099 0.42997 -0.085217 -0.25474 -0.35765 -0.20778 -0.22487 0.21808 0.38007 0.081174 -0.44615 -0.2255 0.2209 -0.40311 0.33698 -0.14752 -0.30371 0.1144 0.357 -0.0033703 0.028218 -0.00054556 0.12022 -0.1291 -0.37384 -0.059242 -0.14642 0.10572 -0.18211 -0.026996 -0.15926 -0.13482 0.032912 0.25241 0.039205 -0.14794 -0.21007 -0.15126 0.026439 0.048867 0.12916 0.0046095 0.27193 -0.38446 -0.085434 0.18039 0.15582 -0.25489 0.14973 -0.019688 -0.13049 0.10247 -0.1811 -0.097806 0.25944 0.13638 -0.059004 -0.015399 -0.1587 -0.59014 0.30548 -0.18217 0.042674 0.083312 -0.2261 0.042402 -0.10934 -0.16906 -0.048015 0.059119 0.36644 0.26415 -0.061419 0.025686 -0.23894 -0.24782 -0.082968 0.1307 0.2158 -0.071507 0.11457 -0.15397 -0.16039 0.42427 -0.015653 -0.017255 -0.047523 -0.16504 0.036598 -0.13788 0.25019 -0.24542 0.25395 0.262 0.033726 0.21764 0.021381 -0.21472 0.11474 0.083708 -0.18743 0.36337 -0.29809 0.22248 -0.1162 0.046589 0.15306 -0.073431 -0.55098 -0.16033 -0.13394 -0.1588 -0.24503 -0.37868 0.29459 0.16605 -0.28673 0.02258 -0.1892 0.20334 -0.045718 0.22609 0.2785 0.081213 -0.32562 0.34402 -0.42743 0.27672 -0.47117 0.066648 0.071124 -0.25085 -0.084201 0.056312 0.25998 0.11327 -0.083153 0.026072 0.051124 0.020421 0.22685 0.10539 0.42321 -0.0034169 0.058204 -0.16696 -0.14442 0.2725 0.07375 -0.60282 -0.075001 0.065315 -0.16322 -0.61702 0.049766
że 0.24289 -0.11414 0.042029 -0.12015 0.13214 -0.062815 -0.092157 0.039685 -0.0068692 0.026184 -0.23476 0.097691 -0.021538 -0.0021434 -0.010518 0.044682 0.37522 -0.090511 0.1352 0.26974 -0.13421 0.34539 0.18975 -0.28957 -0.19664 0.27538 -0.016171 0.11868 0.13363 -0.098972 0.032129 0.021415 -0.032284 -0.16475 0.22693 0.15921 0.11491 0.22622 0.13545 0.076615 -0.014501 0.1012 0.089305 0.16689 0.030933 -0.084399 0.011637 0.10346 0.0014212 0.063561 0.055894 -0.046155 -0.0044462 -0.022981 -0.13244 -0.0088406 -0.17946 -0.19398 0.4463 0.32225 -0.063681 -0.39085 -0.22085 -0.068043 -0.28852 0.091529 0.27999 0.44868 -0.37603 0.17799 -0.028395 -0.2365 -0.18798 -0.27377 0.3115 0.23826 -0.12134 -0.079504 0.0043926 -0.055725 0.018294 -0.17023 0.056306 -0.14826 -0.081552 -0.069085 0.12805 0.067679 0.47475 0.21343 -0.15209 -0.10192 0.035577 0.084705 -0.21804 0.082168 -0.14199 0.053532 -0.074378 -0.079725 0.11186 -0.24786 0.28118 -0.14029 -0.067451 0.20405 0.022764 -0.32129 0.081773 -0.10905 -0.045141 0.029043 0.075085 -0.15995 0.025801 0.19532 -0.13382 -0.052575 0.082991 0.25136 -0.22043 -0.17001 -0.023222 0.076484 0.088951 -0.055119 0.24215 0.067412 0.11812 0.12916 0.040646 0.039032 0.36055 0.19708 -0.057794 0.08518 0.069683 -0.19979 -0.0069161 0.083304 0.031865 -0.2097 -0.018961 -0.039296 0.13195 0.099078 0.017003 0.042421 0.14414 -0.32554 -0.033012 0.074639 0.058915 0.45905 0.012675 0.090378 0.044215 0.27392 -0.15465 -0.17177 0.051999 -0.13511 -0.093384 -0.02767 0.17452 0.14025 0.12994 -0.046809 0.028938 0.18364 -0.019548 -0.011531 -0.022571 0.12088 0.05766 0.039233 -0.15655 -0.28874 -0.16837 0.15467 -0.082169 -0.21361 -0.097438 0.074019 0.082327 0.28244 0.33368 -0.026939 -5.7399e-05 0.1286 -0.11981 -0.1797 -0.092493 0.45405 -0.44309 0.15123 -0.24334 -0.1541 -0.18075 0.32771 0.070181 -0.00068358 0.14879 0.16257 0.0079715 0.050353 -0.32917 -0.18858 0.050247 0.057174 0.13705 -0.047301 -0.06757 0.22774 0.051124 0.099535 0.25794 0.068234 0.24932 -0.17136 -0.1382 -0.081703 -0.011874 0.24126 -0.38181 0.19807 -0.34699 0.10938 0.13737 -0.13752 -0.092929 0.08851 0.089082 -0.189 0.16947 0.010144 -0.018431 0.30523 -0.059455 0.082569 -0.10076 -0.15921 -0.021689 0.087433 0.28418 0.026266 0.14522 -0.10064 0.16163 -0.059772 -0.26101 0.026898 -0.074438 -0.21183 0.097849 0.4451 -0.32595 -0.19162 -0.019696 0.005169 0.30394 -0.14523 0.062167 -0.079709 0.040271 -0.32522 -0.15318 -0.14562 -0.30482 -0.068027 0.22455 -0.28255 0.24769 0.066638 -0.028025 -0.13096 0.087486 0.16211 -0.11481 -0.34033 -0.013104 -0.24852 -0.51936 -0.013673 -0.039379 -0.093438 0.010096 0.21014 0.10336 -0.088806 -0.12524 -0.0062728 0.29263 0.19976 -0.54777 -0.093761 -0.22488 0.034637 0.24236 0.30141
został -0.031014 -0.082569 0.11912 -0.65389 -0.36419 0.2446 0.023462 -0.30693 0.28959 0.02177 -0.40337 0.10141 0.066482 -0.098916 -0.20526 0.28022 -0.081623 -0.16317 0.45382 0.16389 0.072723 0.3402 0.074322 -0.26156 0.011553 0.3741 0.074886 0.3451 0.11238 0.13103 -0.23688 0.087721 0.32471 0.12875 0.041326 0.074267 -0.021357 0.38674 -0.10774 -0.3053 0.41199 -0.18179 -0.62089 0.06078 0.24152 -0.80276 0.092143 -0.065939 -0.094477 0.074753 0.073239 -0.11819 -0.34441 0.16176 -0.036882 -0.25637 -0.14533 -0.42535 0.48307 0.33019 0.12107 0.49216 -0.080084 -0.050991 -0.22499 0.28554 0.48611 0.16239 -0.060659 0.0036981 0.20147 0.3835 0.07057 -0.013904 0.20865 0.052784 -0.24632 -0.084413 -0.10261 -0.20442 -0.10307 -0.37569 0.34087 0.31415 -0.24879 0.12253 -0.059971 0.17785 0.085058 -0.15603 -0.4506 -0.11401 0.13406 -0.039627 -0.047824 0.067516 -0.38007 0.10389 -0.31127 -0.17109 0.02618 -0.31761 0.030167 0.15364 0.12316 -0.20343 0.088431 0.26283 -0.13412 -0.052412 0.20354 0.15171 -0.15304 -0.014206 -0.17796 0.11676 -0.41394 0.46193 -0.21994 -0.16204 -0.0084585 0.19109 0.15158 -0.0056355 -0.057013 0.22757 0.060914 0.16585 0.014201 -0.1374 0.10033 0.071927 0.075714 -0.15522 -0.17484 0.050846 -0.10659 0.34868 -0.075355 -0.088316 -0.063447 0.2247 -0.14631 0.033267 0.24375 0.043855 -0.052457 -0.020749 0.038991 -0.32451 -0.16983 -0.21152 -0.35958 -0.4088 -0.11167 -0.33231 -0.11441 -0.1192 0.18684 0.27397 0.16105 0.4396 0.046181 -0.039033 -0.30958 -0.074296 -0.30224 -0.12619 0.0019603 0.021304 -0.17118 0.018966 0.08417 -0.11854 -0.068448 -0.19561 0.087915 -0.22881 0.18221 0.15719 0.25322 -0.1433 0.25686 -0.10437 0.42423 0.070629 -0.16943 0.42411 -0.33343 0.15974 -0.052782 -0.16636 0.0035325 -0.065619 -0.10036 0.21357 -0.039175 -0.13931 -0.11649 -0.30859 -0.094166 0.28181 -0.21855 -0.22827 -0.17947 0.1934 0.24402 0.0071076 -0.26805 0.23167 0.20813 0.19519 -0.19862 0.14609 0.035383 0.19823 0.35191 -0.12893 0.024586 0.096167 -0.2097 0.16514 0.1326 0.17037 -0.16276 0.13403 -0.089658 0.21525 0.23157 0.24804 0.060245 0.5123 0.052706 -0.00042587 -0.024611 0.069058 -0.09731 0.29553 -0.12645 0.24285 0.055905 -0.20737 0.21332 0.022324 0.10335 -0.045588 0.26367 -0.36113 -0.065164 -0.28027 -0.24017 0.33167 -0.080741 -0.14115 0.22122 -0.36099 -0.068525 0.097458 -0.29819 0.13434 0.011409 -0.11371 0.19716 -0.16579 0.052215 -0.23183 -0.11452 -0.063721 0.10785 -0.24523 -0.14614 0.040729 0.4374 -0.27055 0.092515 0.39435 -0.12488 0.097153 0.19693 -0.333 0.04962 -0.024575 -0.38866 0.0086259 -0.2208 0.081031 -0.40834 0.14064 -0.2584 0.011713 0.45021 -0.043234 -0.12403 -0.2274 -0.22148 -0.16905 0.052432 0.04417 -0.18239 0.17149
był 0.073816 -0.21118 0.27121 -0.39806 -0.26262 0.30935 -0.033416 -0.28406 -0.13096 -0.033373 0.029568 0.16597 0.18945 0.18878 -0.27214 0.10473 0.032034 -0.32827 0.13681 0.35103 -0.12558 0.28261 0.092206 -0.1444 0.001087 0.15741 -0.056725 0.40823 -0.050936 -0.12405 -0.19698 -0.043002 0.3212 -0.18992 0.12341 -0.20335 -0.23801 0.21564 -0.22281 -0.015268 0.037753 -0.13126 -0.43122 0.046666 -0.045753 -0.46493 0.12663 -0.050654 0.20116 0.27388 0.067229 0.10105 -0.28694 0.23745 0.096334 -0.029462 -0.039696 -0.11326 0.45425 0.059142 -0.12608 0.46307 -0.30134 -0.43234 -0.25814 0.58875 -0.017369 0.2647 -0.052512 -0.21122 0.24286 0.25177 -0.10973 -0.10914 0.34047 0.041932 -0.14916 -0.081136 -0.11257 -0.068261 -0.10482 -0.21327 0.30977 0.084236 -0.29753 -0.23202 -0.049681 0.49508 0.088366 0.076946 -0.081925 0.14239 0.036441 0.14665 -0.0082541 -0.072494 -0.38759 0.4236 -0.22297 -0.26608 0.072891 -0.2473 0.070642 0.27759 0.055694 -0.2407 -0.16547 -0.017757 0.13102 -0.10337 0.209 0.12259 0.27988 0.085463 -0.027876 0.22175 -0.14677 0.47697 -0.17688 -0.10497 -0.021615 0.3169 -0.10026 -0.16727 -0.082596 -0.0088622 0.22382 0.22941 -0.15097 -0.060804 0.090355 0.55703 -0.014754 0.024243 -0.015702 0.26298 -0.21822 0.043649 0.17338 -0.18776 -0.099116 -0.10425 0.10029 -0.067284 0.39674 0.25221 0.069745 0.08651 0.061843 -0.26509 -0.20217 -0.087158 -0.19176 -0.34625 -0.01052 -0.18834 -0.0084823 -0.11022 -0.025695 0.078036 0.14781 0.19627 -0.20347 0.090061 -0.04877 -0.19764 -0.37711 -0.0058427 -0.25674 -0.15122 -0.040952 0.27511 0.18429 0.17334 0.23426 -0.17776 0.0079373 -0.12151 0.18938 0.1772 0.071442 0.36313 -0.11594 -0.029298 0.19542 -0.12391 -0.27958 0.275 -0.153 0.083737 -0.06278 0.046834 0.1729 0.03769 -0.077567 0.084968 -0.11327 -0.22417 -0.073471 -0.087308 -0.025382 0.35923 -0.29902 -0.043313 -0.2594 -0.1395 0.22166 -0.071153 -0.30761 0.11431 -0.019911 0.27581 -0.062798 0.16392 0.13571 0.14716 0.070935 -0.20664 -0.031571 -0.15604 -0.35361 0.17265 -0.13297 -0.088455 -0.34197 0.266 -0.34424 -0.051753 0.14026 -0.019574 -0.31625 0.32814 0.056098 -0.068298 0.013218 0.2125 -0.10709 0.35044 -0.058495 0.14761 0.045148 0.022973 0.32502 0.13946 0.45014 0.033044 0.3563 -0.13282 0.08175 -0.08984 -0.22402 0.25192 -0.28153 0.041324 0.031831 -0.10783 -0.27104 0.043782 -0.16541 0.030945 0.22175 -0.042568 0.24532 0.12702 0.085067 -0.10372 -0.28371 0.054592 -0.087052 0.0011861 -0.13039 -0.23508 0.35219 -0.25115 0.0077843 0.3487 0.027305 0.1461 0.20924 0.098342 0.19359 0.11166 -0.33354 0.14902 -0.25569 0.14223 -0.25653 0.12883 -0.062284 0.013229 0.19183 0.18083 0.087196 -0.22014 -0.40623 -0.3554 0.22411 0.27018 -0.17293 0.16086
m -0.047848 0.15621 -0.15231 -0.40089 -0.10755 0.33326 0.027784 0.17919 -0.22873 -0.010622 0.16626 -0.11306 -0.0070816 0.16063 -0.1807 0.5353 0.053749 -0.12538 0.22306 0.017222 0.19028 0.45795 0.30195 0.040545 -0.3785 0.13088 0.011723 0.20719 0.17192 0.13265 -0.183 0.49537 0.029188 -0.14118 -0.25613 0.15281 0.34119 0.35004 -0.41222 0.2816 0.10495 0.037078 -0.19074 -0.026128 0.24096 0.12046 -0.12673 0.13447 0.01026 -0.12056 0.11318 -0.033279 -0.019895 -0.081094 -0.15426 0.3142 0.21172 -0.13734 0.11123 0.20508 0.56336 -0.006681 -0.20044 -0.22171 -0.37609 0.12337 0.23449 0.12979 0.0038809 0.12421 -0.03672 0.11891 0.057784 0.015056 0.025125 -0.093379 0.13861 -0.15604 -0.23105 0.25611 -0.4318 -0.16886 0.58022 -0.052759 -0.028089 0.12476 0.037103 0.097646 -0.12972 -0.077172 -0.14678 0.013966 0.1494 0.5383 0.011109 0.10818 -0.34929 0.20824 -0.3948 -0.27385 0.08943 0.048352 -0.0029012 0.34406 -0.14938 0.063218 0.14788 -0.29275 0.37166 0.13864 -0.28442 -0.24508 -0.29989 -0.11633 -0.10364 0.1983 -0.44649 0.37162 -0.08414 -0.11919 0.35723 0.35161 -0.086513 -0.11308 -0.27224 0.1699 -0.076619 -0.30932 -0.057035 -0.03664 0.36037 -0.22633 -0.33353 -0.019359 0.29414 0.16967 0.040443 0.078045 -0.20108 0.13686 0.090553 0.069363 0.32497 0.51062 0.35886 0.38766 -0.079121 -0.27128 0.12776 -0.15518 -0.27214 -0.47637 -0.074431 -0.02208 -0.11272 -0.11738 -0.011175 0.17318 -0.024924 -0.28813 0.089655 0.093219 -0.12336 0.04416 0.071216 -0.058359 0.22017 0.10166 -0.060478 -0.09147 -0.19903 0.14285 0.01215 0.38097 0.12562 -0.30321 0.26877 0.2726 -0.025038 0.36548 0.066632 0.12349 0.019705 0.1868 -0.14447 0.15629 0.36399 0.48051 0.0035112 -0.1436 0.11005 0.17913 -0.10201 0.08213 -0.071567 0.4109 0.38453 -0.12782 -0.31423 0.14906 -0.10065 0.0030438 0.11216 -0.025587 0.03783 -0.005607 0.060836 0.20053 0.035494 0.35308 0.077376 0.27404 -0.1526 -0.37477 -0.3455 0.519 0.0018826 0.025904 -0.29486 -0.41684 -0.1079 0.069278 -0.02893 -0.18625 -0.093191 0.011226 0.19025 -0.0055758 0.20855 -0.37394 -0.44961 -0.025809 0.066193 -0.058927 0.15617 0.075905 -0.069254 0.0091555 0.071573 -0.23014 0.2477 -0.097328 -0.2631 -0.07466 0.038523 -0.38617 0.10077 0.033402 0.26431 0.012045 -0.088678 -0.24831 -0.1399 0.10368 0.060371 0.11468 0.21833 -0.30458 0.049126 0.27406 -0.24681 -0.048809 0.095212 0.18182 0.28365 0.25503 -0.33054 0.21693 0.11181 0.072476 -0.20886 -0.20366 0.11041 -0.044767 0.023889 0.091827 0.26692 -0.030245 0.025548 0.092967 0.036816 0.046743 0.26883 -0.25564 0.26414 -0.06433 0.36203 0.047043 0.11508 -0.18255 -0.042802 -0.10639 0.23448 -0.16777 -0.42958 -0.38287 -0.19033 -0.26508 -0.277 -0.3329
ur -0.259 0.36801 0.27873 -1.4261 0.24307 0.59712 0.08887 0.37837 -0.0010358 0.066981 0.11934 0.1324 -0.2963 0.44472 0.47724 0.31645 -0.35755 -0.13566 0.13801 -0.042274 0.20642 0.13225 0.19325 -0.093807 -0.10763 -0.27052 0.045902 -0.035202 -0.057333 0.33676 -0.53804 0.23081 0.11192 -0.15352 -0.1246 0.20576 -0.24707 0.33282 -0.35047 0.23494 -0.081094 -0.20107 -0.0099456 0.13003 0.55741 -0.75105 -0.016147 0.0044165 0.097485 0.2089 0.11443 0.14191 -0.14353 -0.1391 -0.06505 -0.31394 0.30848 0.29854 0.42755 0.31475 0.53672 0.26043 -0.29151 -0.27045 -0.011118 -0.52311 0.60233 0.066041 -0.18249 0.2434 0.20317 0.077857 0.021174 0.13955 -0.29488 -0.3117 0.085977 -0.16802 0.21786 0.028789 0.028133 0.038785 -0.032526 -0.2904 0.36237 0.50069 0.31657 0.029832 -0.38387 -0.024878 -0.18919 0.078566 0.17076 0.16031 0.063305 -0.035308 0.20304 0.21047 0.15373 -0.028879 -0.045654 0.012857 0.39895 -0.16661 -0.061931 0.29405 -0.17654 0.5789 -0.062045 -0.018157 -0.24345 -0.46045 0.30141 -0.42911 0.0028404 0.4709 0.17839 -0.10714 -0.35774 -0.14695 -0.72293 -0.025543 -0.29751 -0.068008 -0.42623 -0.31573 0.35259 0.072043 -0.15779 0.060769 0.50382 -0.16203 -0.37957 0.050971 -0.42889 0.038129 -0.74682 0.041827 0.20874 0.087709 -0.28364 0.36395 0.30697 0.1698 0.26602 0.3732 0.24572 -0.32783 0.27473 -0.20217 0.051704 0.23572 0.23412 0.38775 -0.1244 -0.0051373 -0.078487 0.45242 0.1608 -0.19276 -0.58167 0.097697 -0.12273 0.080112 0.05672 -0.59354 -0.18016 0.063239 -0.19801 0.54266 -0.1311 0.26189 -0.10057 -0.25558 -0.13415 -0.51244 0.47738 0.083078 -0.043338 -0.031293 0.29601 0.0021408 0.55442 0.069839 0.45892 -0.018506 -0.7857 -0.17723 0.34758 0.2016 0.068095 -0.0025015 0.41476 -0.17117 0.035573 0.18507 -0.49887 -0.19182 -0.26577 -0.069353 0.41781 -0.063666 0.22953 -0.2046 0.36106 0.08686 -0.29489 0.40839 0.1035 -0.43603 -0.23819 0.15125 -0.27413 0.071878 -0.23634 -0.16593 0.20576 -0.21793 0.28772 -0.1155 -0.83042 0.018097 -0.36333 0.10221 0.18757 0.10212 -0.24976 -0.021384 0.20572 -0.41461 -0.43191 0.2976 0.58777 0.21429 -0.17124 -0.37525 -0.066861 0.3555 0.083688 0.38579 0.0045403 0.30278 -0.033979 -0.12263 -0.0054138 0.32699 0.038008 -0.39707 -0.029157 -0.38013 0.015444 -0.070553 -0.54151 -0.32628 0.016307 0.045407 -0.15745 0.068545 -0.24799 0.53515 -0.18713 -0.43425 0.30165 0.29586 0.28131 -0.33339 0.28236 0.38348 -0.13555 0.0037683 -0.13502 -0.23077 0.003029 -0.35095 -0.47383 0.46316 -0.33583 0.054812 0.25407 0.20743 -0.22503 -0.26228 -0.22086 -0.22294 -0.28264 0.25733 -0.29654 0.29685 0.12758 -0.46642 0.77648 -0.24281 0.39441 0.40234 -0.4234 -0.5409 0.049252 -0.18675 0.032108 0.38537
za 0.45152 -0.078346 0.27331 -0.43319 0.18963 0.28172 -0.32289 -0.19729 -0.083737 -0.43827 -0.085511 0.07059 -0.26552 -0.28423 -0.46162 0.13481 -0.017248 -0.12063 -0.11906 0.088851 -0.052622 0.12699 -0.059039 -0.18093 -0.052675 0.31692 0.021664 0.028481 -0.044508 0.14772 -0.42353 -0.058375 0.16381 0.14736 0.28157 0.18519 0.094351 0.14582 -0.11536 0.1461 0.14067 0.38795 0.11787 0.11549 0.23868 -0.39041 0.28885 0.0053535 0.0071326 -0.31311 -0.30681 -0.28687 0.111 0.22107 -0.069619 0.0014801 -0.18099 -0.34913 0.75541 0.31142 0.1326 0.02119 -0.56813 -0.20848 -0.013042 0.033664 0.099323 -0.082416 -0.13438 0.17541 -0.094266 -0.22516 0.043479 0.12632 -0.20899 0.13891 0.1484 0.1092 -0.37214 0.12488 -0.16535 0.30313 0.10701 -0.23048 0.23846 0.015812 -0.096441 0.047919 0.44174 -0.066594 -0.3477 -0.37313 0.1854 -0.17051 0.088894 0.029198 0.15136 0.15371 0.14195 -0.10815 -0.19334 -0.093226 0.17599 0.013704 0.1296 0.17682 -0.17599 -0.070582 0.57946 0.21671 0.41787 0.026758 -0.0085126 -0.14649 -0.1474 0.15115 -0.05865 -0.10816 -0.090827 -0.10089 0.030347 -0.12993 0.32909 0.01513 0.084463 -0.028029 0.37717 0.044703 -0.12582 -0.12833 0.29833 0.47075 -0.19226 0.43354 -0.1276 -0.061536 0.22802 0.060066 0.11613 -0.1083 0.35095 -0.33922 0.16915 0.013008 -0.24473 0.13925 0.065315 0.17459 0.33545 -0.27652 -0.17393 0.049545 -0.37361 0.11142 0.13001 -0.28717 -0.096207 -0.16291 0.12488 -0.094267 -0.0096099 -0.1548 0.018475 -0.027057 0.34492 -0.080171 -0.045017 -0.10458 0.047362 -0.044752 -0.15366 0.27066 -0.42726 -0.12269 -0.019977 -0.28725 0.31471 -0.022328 -0.24028 0.16934 0.11725 -0.14843 -0.21756 0.087584 0.33254 0.48677 0.1253 0.46503 -0.31179 -0.19798 0.28247 0.010647 0.096794 0.078869 -0.2611 0.20553 0.020538 0.08012 -0.063897 0.15178 -0.10986 0.18567 0.060628 0.15954 0.16914 0.31516 -0.048692 -0.18233 -0.26332 0.15635 0.019099 0.080855 0.2212 0.038995 -0.084811 -0.1098 0.3238 -0.18041 -0.03547 -0.38753 0.0092584 -0.20293 0.037204 0.05269 0.080438 -0.060136 0.16912 0.032183 0.29465 -0.27125 -0.079778 -0.13281 -0.047951 0.017072 -0.33075 0.42767 -0.018935 0.1535 -0.19661 -0.19055 0.13727 0.074967 -0.029393 -0.036556 0.13702 -0.23506 -0.023966 -0.30174 0.015409 -0.019769 -0.21947 0.053854 -0.10424 0.38784 -0.046783 0.15842 -0.17288 0.039912 -0.20399 -0.16222 0.15865 -0.44339 0.17078 -0.10267 -0.20773 -0.0073225 0.015433 -0.32254 0.19883 0.044094 0.098809 -0.377 0.16349 -0.021846 0.33023 0.040687 -0.043191 0.0022297 -0.11588 -0.27414 0.12786 -0.15817 -0.26727 -0.4243 0.053326 0.13957 0.49238 0.19591 -0.13096 -0.065619 0.14059 0.21186 -0.040341 -0.046861 -0.055553 0.2741 0.20629 0.28239 -0.17851 -0.20683
